Symbol,open,high,low,close,volume,change,Vector1,Vector2,Vector3,Vector4
A,49.187863383637826,49.60005869737887,48.78202597299442,49.20202541699773,2338038.906274821,0.00028791722969233774,-0.18930000066757202,-0.6809999942779541,-1.1607999801635742,-0.2159000039100647
AAL,38.39049547259726,38.95555385226367,37.82560500397139,38.39325226370134,9390321.324066719,7.180920876759986e-05,-0.1111999973654747,-0.2662000060081482,-1.761299967765808,3.5104000568389893
AAP,132.4396305798252,133.81829722001598,131.03602494042872,132.43346306592537,1078043.216838761,-4.65684921713993e-05,0.9275000095367432,-0.07129999995231628,-0.5302000045776367,0.5655999779701233
AAPL,109.05542891183475,109.95111834789516,108.14158888006372,109.06669849086583,54047899.73550437,0.00010333808361058604,0.38280001282691956,-0.5569999814033508,-0.742900013923645,0.07180000096559525
ABBV,60.802800635424916,61.47413304209688,60.17727490071493,60.864440031771295,7870682.665607625,0.0010137591640880263,0.18019999563694,-1.1672999858856201,-0.7491000294685364,1.010200023651123
ABC,82.06642970611591,82.78177394757734,81.34988919777611,82.09297855440828,2005738.3232724385,0.00032350436576121506,0.5310999751091003,-0.9070000052452087,-0.4253000020980835,-0.3767000138759613
ABT,42.924758061953895,43.25870984908655,42.60101945988876,42.94032565528204,6964036.691818904,0.0003626716615542486,0.12970000505447388,-1.1131000518798828,-0.635699987411499,-1.0210000276565552
ACN,101.02282613185064,101.76644011119927,100.34816306592536,101.1190786338365,2596238.098490866,0.000952779739701939,0.22849999368190765,-0.4749000072479248,-0.782800018787384,-2.1630001068115234
ADBE,90.38760921366176,91.18987617156479,89.5786207307386,90.45815639396348,2998133.5996822873,0.0007804961422859847,-0.19089999794960022,-1.0118999481201172,-1.0547000169754028,-0.014700000174343586
ADI,60.92858252581421,61.47024749801434,60.34129269261315,60.93193208895952,2451738.088959492,5.497523504497083e-05,-0.41179999709129333,-0.08889999985694885,-1.684499979019165,-0.19939999282360077
ADM,42.37951945988881,42.76270587768069,42.01937029388397,42.402112787926896,3647857.6870532166,0.0005331190236705816,0.7324000000953674,-0.16419999301433563,-0.6021999716758728,-0.28529998660087585
ADP,86.96032168387607,87.55285210484503,86.34965424940428,87.00940111199368,2022774.221604448,0.0005643887599223091,0.1371999979019165,-1.1859999895095825,-0.5288000106811523,-2.219099998474121
ADS,241.00733518665626,243.46799904686245,238.46149285146913,241.0440508339953,619308.5424940429,0.00015234244762965814,-0.375900000333786,-0.20669999718666077,-1.6303999423980713,0.3361000120639801
ADSK,64.13887728355851,64.87470325655285,63.41757482128671,64.19433582208106,2482750.679110405,0.0008646633815768401,0.032999999821186066,-0.13830000162124634,-1.4085999727249146,1.3701000213623047
AEE,44.97462271644164,45.3205584590945,44.63759475774427,45.00293884034948,1622724.4956314536,0.0006296022556180499,3.1359000205993652,-1.1627999544143677,1.9242000579833984,-0.8482999801635742
AEP,58.440305798252666,58.86015464654482,58.02168681493242,58.466139793486846,2781243.0254169977,0.0004420578380161791,3.3027000427246094,-1.569599986076355,2.268699884414673,-1.2417999505996704
AES,12.337339714058766,12.470018903891983,12.202694360603658,12.340048451151723,5568655.816521049,0.00021955601091788087,1.9056999683380127,0.2563000023365021,0.09769999980926514,0.7378000020980835
AET,104.75635822081006,105.7992849880859,103.78293749007157,104.82171167593329,2716448.100873709,0.0006238614651482527,0.14839999377727509,-0.6822999715805054,-0.9399999976158142,0.20520000159740448
AFL,66.08916203335983,66.54092907069105,65.66906004765693,66.12238681493247,2116351.5226370133,0.0005027266279434892,0.2678999900817871,-0.3919999897480011,-0.7578999996185303,-2.3268001079559326
AGN,222.40117545671183,224.9561862589354,219.6454394757743,222.26103256552835,2880076.8125496428,-0.0006301355687337642,0.24410000443458557,-0.7372999787330627,-1.0099999904632568,2.023200035095215
AIG,55.692427402700645,56.128224384432094,55.26543947577449,55.706544876886426,8419467.383637808,0.0002534900137086938,0.09920000284910202,0.0729999989271164,-1.1894999742507935,-1.5052000284194946
AIV,37.4748610007943,37.792993089753814,37.15344146147737,37.49065925337562,1198721.3010325655,0.0004215693443395231,1.9280999898910522,-1.8007999658584595,1.1842999458312988,-0.2612000107765198
AIZ,75.36168387609214,75.98690786338359,74.7874548848292,75.40227164416207,545139.3129467831,0.0005385729986694522,0.4399999976158142,0.07320000231266022,-0.8634999990463257,-1.6267000436782837
AJG,48.61043288324056,48.92056004765689,48.291752343129495,48.62541699761724,924431.0667196187,0.0003082489393310208,0.23909999430179596,-0.7730000019073486,-0.6057000160217285,-2.4767000675201416
AKAM,56.60609046862582,57.21803868149325,56.00950436854652,56.625419301032565,2182469.447180302,0.00034146206259299123,-0.0828000009059906,-0.4794999957084656,-1.3071000576019287,1.1822999715805054
ALB,75.3668546465449,76.12907950754563,74.57657855440827,75.36178316123907,1160881.819698173,-6.729065886594054e-05,0.5982999801635742,0.3614000082015991,-1.05239999294281,0.4814999997615814
ALGN,83.62693804606837,84.66559372517868,82.5246159650516,83.66451826846715,885551.828435266,0.0004493793899050945,-0.024900000542402267,-0.43869999051094055,-1.3413000106811523,1.7517000436782837
ALK,61.76385822081015,62.52695051628272,60.971666401906326,61.76706513105648,1537615.6846703733,5.1922116569676955e-05,-0.039400000125169754,-0.5782999992370605,-1.396299958229065,2.523200035095215
ALL,67.19368387609215,67.62583502779981,66.80153200953139,67.22848292295474,2407102.868149325,0.0005178916358680214,0.5094000101089478,-0.9079999923706055,-0.30660000443458557,-2.376699924468994
ALLE,64.16677798682983,64.74000329256825,63.57825164628415,64.18211194731897,739724.4948259642,0.00023897039823772266,0.19179999828338623,-0.6241999864578247,-0.8418999910354614,-0.3506999909877777
ALXN,142.60172366957912,144.70387752184277,140.221779666402,142.51771008737114,1762434.8204924543,-0.0005891484341566586,0.05550000071525574,-0.2689000070095062,-1.6518000364303589,3.7207999229431152
AMAT,25.838796584590952,26.1145745830024,25.538444559173925,25.838925337569528,13230027.8649722,4.982932473426469e-06,-0.1500999927520752,0.08510000258684158,-1.5898000001907349,0.6510999798774719
AMD,5.604315250198568,5.717247100873705,5.486632803812549,5.601862589356624,32519037.79666402,-0.0004376379151507795,0.586899995803833,0.609499990940094,-1.7628999948501587,4.479700088500977
AME,52.33212470214454,52.728494440031824,51.946082128673545,52.357029388403554,1308148.1326449562,0.0004758967154641984,-0.15489999949932098,-0.6211000084877014,-1.0570000410079956,-1.9846999645233154
AMG,179.20622319301026,180.92498673550452,177.34026727561582,179.1746624305003,451857.10166799044,-0.00017611421047569818,-0.18320000171661377,0.4424999952316284,-1.7532999515533447,0.25690001249313354
AMGN,146.00554781572671,147.42604281175542,144.48836068308168,146.00447537728365,3465404.566322478,-7.345189680146855e-06,-0.13079999387264252,-0.8192999958992004,-1.1345000267028809,0.41589999198913574
AMP,114.082361477363,115.09998459094524,113.06971421763306,114.1116838760922,1132200.868943606,0.0002570283289150266,-0.0722000002861023,0.9728999733924866,-1.8037999868392944,-0.9458000063896179
AMT,101.01676806989671,101.81603828435263,100.2322553613981,101.0391580619538,2280151.30420969,0.0002216462918472452,1.17739999294281,-1.412600040435791,0.4002000093460083,-0.7300000190734863
AMZN,576.8672637807787,582.0172213661638,571.1135165210492,576.88004050834,3730465.46624305,2.214847047760451e-05,0.09139999747276306,-1.0585999488830566,-0.8396000266075134,0.8341000080108643
ANDV,77.68252184273219,78.80427887212069,76.5544837172359,77.72001985702946,2617506.42573471,0.000482708509041259,0.7689999938011169,0.8948000073432922,-1.5163999795913696,3.2532999515533447
ANSS,93.53625496425728,94.36010738681487,92.74584773629866,93.60052343129472,439197.7855440826,0.0006870968595224943,0.06620000302791595,-0.963699996471405,-0.7832000255584717,-0.6238999962806702
ANTM,134.1646105639396,135.51758546465467,132.9165046068309,134.28223987291506,1883323.538522637,0.0008767536273614216,0.32679998874664307,-0.7901999950408936,-0.7080000042915344,0.2565000057220459
AON,99.05539714058787,99.75203820492447,98.41698633836396,99.11863383637807,1328024.8760921366,0.0006383972768333276,0.47369998693466187,-1.062999963760376,-0.26330000162124634,-2.47379994392395
AOS,36.43963463065923,36.76449880857825,36.116616918188996,36.460653296266884,1259603.602065131,0.0005768078033903057,-0.21400000154972076,-0.43689998984336853,-1.2728999853134155,-0.7849000096321106
APA,64.10297378872123,64.90600317712465,63.256134074662455,64.07328435266088,3832411.795869738,-0.000463152242487313,2.2797999382019043,2.51200008392334,-1.021299958229065,2.5611000061035156
APC,72.26572676727575,73.17231906274816,71.29438030182679,72.24023034154098,4972386.501985703,-0.00035281490791452043,2.38100004196167,2.434799909591675,-0.784600019454956,2.076200008392334
APD,132.59196981731532,133.5522469420173,131.58854344718026,132.61769658459093,1329444.9221604448,0.0001940296030827548,0.1103999987244606,-0.671999990940094,-0.8458999991416931,-1.2994999885559082
APH,56.83336973788718,57.237312231930126,56.45566656076248,56.872926926131896,1224710.4996028594,0.0006960204616961868,0.3479999899864197,-0.8428000211715698,-0.5170999765396118,-1.7615000009536743
APTV,89.54784090909094,90.55232045454544,88.53879545454544,89.49386363636361,2112449.522727273,-0.0006027758143506876,0.605400025844574,-0.0997999981045723,-0.8291000127792358,0.04780000075697899
ARE,91.94706513105636,92.68540198570297,91.1907808578236,91.98567911040521,527525.8800635425,0.0004199588023153778,1.648800015449524,-1.632200002670288,0.8799999952316284,-0.3817000091075897
ARNC,31.399559173947505,31.807168546465448,30.981484193804597,31.401755361397868,6826431.219221604,6.994325742587579e-05,0.7663999795913696,1.2899999618530273,-1.6268999576568604,2.521199941635132
ATVI,32.72895154884827,33.09138371723587,32.338760047656855,32.73928117553613,7658033.0325655285,0.00031561129211361377,0.014100000262260437,-0.5996999740600586,-1.1568000316619873,0.9625999927520752
AVB,161.79069277204093,163.07582184273232,160.4466052422557,161.803113582208,771412.7760127085,7.677085717515509e-05,1.9122999906539917,-2.2295000553131104,1.3558000326156616,-0.3709000051021576
AVGO,130.74816918189035,132.20161397934854,129.0882539316918,130.74567712470227,2846907.2748212866,-1.9059977693543134e-05,-0.019200000911951065,-0.39980000257492065,-1.3730000257492065,1.8076000213623047
AVY,64.44754162033362,64.94932708498811,63.94761429706122,64.47580619539316,760835.4694201747,0.000438567156309034,0.30820000171661377,-0.5590999722480774,-0.7070000171661377,-1.1720999479293823
AWK,60.12553613979358,60.56986560762509,59.680333598093846,60.15078633836393,943796.4718030182,0.00041995797778235296,3.0810000896453857,-1.0683000087738037,1.9048000574111938,-1.4133000373840332
AXP,78.60554344718035,79.16633463065926,78.05201342335182,78.61601270849886,4773412.951548848,0.0001331873155427012,0.1264999955892563,-0.125900000333786,-1.0485999584197998,-1.6907999515533447
AYI,166.81832406671987,168.68746004765686,164.93941397934864,166.8921842732327,483442.64892772044,0.0004427583535923687,0.14869999885559082,0.13519999384880066,-1.4119999408721924,1.068600058555603
AZO,619.6706155679113,624.9363382843524,614.2743500397141,619.7036536934078,315794.3820492454,5.3315623924096694e-05,0.5932999849319458,-0.7605999708175659,-0.4724999964237213,-0.01080000028014183
BA,149.77697227958714,151.0358803018269,148.62379221604428,149.9059888800636,4178966.0389197776,0.0008613914309579412,0.10159999877214432,-0.791700005531311,-0.8136000037193298,-0.9918000102043152
BAC,17.70662414614774,17.866469499602843,17.53918594122319,17.704177918983333,93633799.51628277,-0.00013815322131506693,-0.6931999921798706,1.30840003490448,-2.5826001167297363,-0.7369999885559082
BAX,59.32941620333605,59.74340667196195,58.897827720412955,59.334718030182685,4093500.5281969816,8.936253187563041e-05,0.6690999865531921,-1.0501999855041504,-0.19329999387264252,-1.0134999752044678
BBT,38.95879269261317,39.26080476568707,38.66226703733126,38.97519062748216,4188795.4130262113,0.00042090459523127637,-0.1485999971628189,0.6972000002861023,-1.6938999891281128,-2.0471999645233154
BBY,37.85417791898331,38.3580018268467,37.38881612390785,37.89544876886421,5711082.543288324,0.001090258781190061,0.20440000295639038,0.3012999892234802,-1.5534000396728516,2.2425999641418457
BDX,146.95524424146151,147.97237291501196,145.8916355837967,147.0200873709289,1080620.620333598,0.0004412440658521024,0.22130000591278076,-1.4797999858856201,-0.3621000051498413,-1.4356000423431396
BEN,46.09909444003172,46.49888752978558,45.68548800635422,46.090758141382146,2559382.2144559175,-0.00018083432550760028,-0.31310001015663147,0.38589999079704285,-1.785599946975708,-0.6069999933242798
BF.B,46.2330003971406,46.600657744241424,45.86821866560758,46.25262907069097,976498.9197776013,0.0004245598032090058,1.0109000205993652,-0.9642000198364258,0.0925000011920929,-1.1723999977111816
BHF,60.08383802816903,60.796860563380314,59.35305704225353,60.1396573426573,1013135.6083916083,0.0009290237827699727,0.5649999976158142,0.12319999933242798,-0.97079998254776,0.560699999332428
BHGE,33.93789473684211,34.40812434210526,33.436275,33.890526315789465,4133638.4342105263,-0.0013957383455852307,0.8986999988555908,0.5627999901771545,-1.0787999629974365,1.5261000394821167
BIIB,295.5971564733917,299.2974849880857,291.5961814932485,295.41326401906286,1645028.2295472596,-0.0006221049502733641,-0.11079999804496765,-0.8011999726295471,-1.3619999885559082,2.393199920654297
BK,40.20586973788727,40.52439030976969,39.89101262907073,40.21694996028596,5347609.725972994,0.0002755871834367557,-0.6001999974250793,0.49149999022483826,-2.025099992752075,-1.441499948501587
BLK,348.5779110405085,351.447510802224,345.586595075457,348.62896743447163,639737.6338363781,0.0001464705374207577,-0.23729999363422394,-0.1509000062942505,-1.3863999843597412,-1.2732000350952148
BLL,33.16222200158852,33.41835178713268,32.89357863383643,33.17507942811752,2361623.2009531376,0.0003877130588048892,0.9659000039100647,-0.704800009727478,-0.07620000094175339,-1.1089999675750732
BMY,56.83565664280024,57.376035799522754,56.30658281622905,56.85287987271287,8025117.671439936,0.00030303564575447697,0.15399999916553497,-1.1886999607086182,-0.6718999743461609,0.03579999879002571
BRK.B,142.29253415409042,143.02507736298685,141.42775814138193,142.28079428117542,3583172.6918189037,-8.250519245294946e-05,0.43939998745918274,-0.5472000241279602,-0.5149999856948853,-2.882699966430664
BSX,17.895421048451134,18.06317220015887,17.724315409054814,17.903891977760104,10841879.173153296,0.0004733573625362319,-0.1818999946117401,-1.4773000478744507,-0.8820000290870667,0.6039000153541565
BWA,47.58563939634637,48.08071667990473,47.07158149324862,47.596096108022195,1884110.4106433678,0.000219745112358934,0.29490000009536743,0.6722999811172485,-1.5262999534606934,0.8902999758720398
BXP,121.70833995234302,122.66265552025415,120.69614702144554,121.721421763304,812103.6155679111,0.00010748491817480685,1.618399977684021,-1.558500051498413,0.8490999937057495,-0.722000002861023
C,53.46438443208895,53.93734876886416,52.99014447974587,53.467950754567156,20686758.37807784,6.670463928630781e-05,-0.4404999911785126,1.0491000413894653,-2.1839001178741455,-1.3592000007629395
CA,30.655111199364537,30.900420015885647,30.4003735504369,30.663517871326484,2777285.909451946,0.00027423394119414283,-0.09049999713897705,-0.9660000205039978,-0.9068999886512756,-0.9262999892234802
CAG,37.400798252581396,37.68580627482123,37.12033272438444,37.41592533756952,3323246.552819698,0.00040445888042185853,1.0383000373840332,-1.103600025177002,0.17960000038146973,-1.3050999641418457
CAH,72.28358220810173,72.9062397934868,71.675678395552,72.31219221604468,2406523.5091342335,0.0003958022979627297,0.33809998631477356,-0.9979000091552734,-0.5580000281333923,-0.19050000607967377
CAT,92.92094511517077,93.67507402700564,92.1010914217632,92.93962668784745,5404720.888800635,0.00020104802693869444,0.5464000105857849,0.4212999939918518,-0.9945999979972839,-0.8299000263214111
CB,115.2896624305004,116.0086118347896,114.5574911834791,115.32315329626691,1564006.8697378873,0.0002904932242879866,0.4569999873638153,-0.6679999828338623,-0.42899999022483826,-3.020900011062622
CBG,31.345615567911103,31.633300714853007,31.03044019062751,31.345925337569486,2274285.05401112,9.88239193171354e-06,0.5360000133514404,-0.2232999950647354,-0.8208000063896179,0.5573999881744385
CBOE,66.0822676727562,66.66460754567116,65.50374559173952,66.13187688641783,729603.2557585385,0.0007507189963167374,-0.05939999967813492,-0.7929999828338623,-1.0118999481201172,-0.21220000088214874
CBS,56.2307228752979,56.80775972994437,55.64220047656866,56.21647339158063,5512626.426528991,-0.00025341100004836956,0.35109999775886536,0.1460999995470047,-1.2050000429153442,1.0713000297546387
CCI,85.13040826052418,85.79093725178711,84.46941374106439,85.1435941223194,2431933.0611596503,0.00015489015105941024,1.269700050354004,-0.96670001745224,0.29170000553131104,-1.1327999830245972
CCL,47.595710881652096,47.987654090548055,47.19746759332798,47.59809372517869,4110469.745035743,5.006424911946162e-05,0.15940000116825104,-0.5292999744415283,-0.9430999755859375,-0.2231999933719635
CDNS,22.5826647339158,22.800383161239065,22.375265925337594,22.603097696584594,2905825.397934869,0.0009048074223990285,-0.4812000095844269,-0.7354000210762024,-1.4602999687194824,0.12370000034570694
CELG,101.31691620333598,102.53441405877679,100.02419555202539,101.31071532962667,5335037.008737093,-6.120274818529867e-05,0.06509999930858612,-0.8374999761581421,-1.1720999479293823,2.346400022506714
CERN,59.09625496425737,59.658352978554475,58.525129706115955,59.1176354249405,2035070.637013503,0.0003617904501066014,-0.06109999865293503,-1.162500023841858,-0.8860999941825867,0.29019999504089355
CF,41.48626417791896,42.06215305798255,40.89635567911045,41.479410643367736,4247865.39158062,-0.0001652000894038981,1.4515999555587769,1.4229999780654907,-1.1614999771118164,2.7302000522613525
CFG,28.805500000000002,29.132458000000003,28.475323764705877,28.815041176470608,5253957.750588235,0.00033122759440404456,-0.765500009059906,1.0003999471664429,-2.5757999420166016,0.1168999969959259
CHD,41.17803216838763,41.46443335980934,40.90865702938846,41.19577839555199,1554292.1374106433,0.0004309634586662671,1.336300015449524,-1.6403000354766846,0.7192999720573425,-2.0225000381469727
CHK,13.701664336775227,13.926500555996801,13.451406433677528,13.681326449563132,24957711.172359016,-0.0014843369909090945,2.2978999614715576,2.611999988555908,-1.5715999603271484,4.864299774169922
CHRW,67.71336973788725,68.29381667990465,67.17528212867352,67.76321763304207,1589710.656076251,0.0007361603084853621,0.8569999933242798,-0.4025999903678894,-0.3440999984741211,-0.6348999738693237
CHTR,207.98953534551242,210.40103939634628,205.63657442414606,208.08838911834803,1559207.6314535346,0.0004752824351061447,0.7455999851226807,-0.5091999769210815,-0.5630999803543091,1.031599998474121
CI,123.14820095313755,124.39865631453526,122.00723788721194,123.2345194598889,1634202.1890389198,0.0007009319347198705,0.2240999937057495,-0.6736999750137329,-0.8999000191688538,0.7818999886512756
CINF,59.409670373312174,59.78566703733112,58.99979714058775,59.41681493248607,598607.2176330421,0.0001202591956663079,0.6607000231742859,-1.0636999607086182,-0.08529999852180481,-2.462599992752075
CL,67.42871731532966,67.85083185067518,67.02005512311347,67.45219618745023,3301235.9205718823,0.00034820285859457357,1.1261999607086182,-1.6908999681472778,0.5884000062942505,-2.6298999786376953
CLX,111.45704924543287,112.19935393169177,110.71765552025406,111.49233518665618,975512.8061953932,0.0003165877928959545,1.3782999515533447,-1.7029000520706177,0.7786999940872192,-1.94350004196167
CMA,51.64768864177918,52.17689817315326,51.13835146942013,51.674078633836416,1929065.597299444,0.0005109617245462798,-0.6517999768257141,1.5147000551223755,-2.678499937057495,-0.38499999046325684
CMCSA,29.996406036536953,30.247596743447154,29.733893248610013,30.003741461477375,24329297.557585385,0.00024454346068948917,0.7218999862670898,-0.6847000122070312,-0.3246000111103058,-0.7943000197410583
CME,95.33095313741055,96.11559555202541,94.53290127084983,95.38709849086572,1612700.4503574264,0.0005889519784224813,0.2378000020980835,0.0551999993622303,-1.0870000123977661,-0.7092999815940857
CMG,493.33199761715656,498.6017562351067,488.1483911834793,493.2560079428113,820579.4757744242,-0.00015403354072364067,0.46059998869895935,-0.09210000187158585,-1.0738999843597412,1.548699975013733
CMI,134.6151826846705,135.81095599682286,133.44045329626695,134.64493248610026,1630509.4868943605,0.00022099885641770794,0.4634999930858612,0.8148000240325928,-1.2634999752044678,-0.7439000010490417
CMS,36.2647776012708,36.5312165210485,35.99937394757741,36.28522637013504,2350950.122319301,0.0005638741008996305,3.875499963760376,-1.1461999416351318,2.545300006866455,-1.2050000429153442
CNC,56.29774622716436,57.03187863383637,55.55324670373308,56.323987291501176,1575350.321683876,0.000466112164258433,0.15559999644756317,-0.3871000111103058,-1.2568999528884888,2.1451001167297363
CNP,23.540849880857827,23.73276203335982,23.35157680698968,23.549527402700534,3725276.3542494043,0.0003686154869779161,2.274600028991699,-0.4284000098705292,0.9103000164031982,-1.0521999597549438
COF,76.73615567911055,77.35988737092929,76.08459380460681,76.74967434471799,3112814.806195393,0.0001761707436057475,-0.28279998898506165,0.8629999756813049,-1.9292000532150269,-1.0302000045776367
COG,28.665677124702107,29.063500238284323,28.244862112787914,28.654968228752992,6039257.025416997,-0.00037357903329926474,2.2530999183654785,1.8844000101089478,-0.7930999994277954,3.2867000102996826
COL,88.76127084988086,89.38057855440826,88.15694765687046,88.80756949960293,1026225.6036536935,0.0005216086844946021,0.47999998927116394,-0.6629999876022339,-0.4738999903202057,-1.6620999574661255
COO,165.25387918983333,166.77239499602874,163.73045861795072,165.3405718824464,452728.4646544877,0.0005246030715774186,0.24629999697208405,-1.038699984550476,-0.6711000204086304,0.31769999861717224
COP,57.459111993645784,58.02103002382842,56.86013526608424,57.453264495631494,7499280.843526608,-0.00010176798442233261,2.0597000122070312,2.1089000701904297,-0.6974999904632568,0.7621999979019165
COST,142.38282390786335,143.3269326449563,141.4098938046068,142.41504281175526,2317919.6767275617,0.00022628364157709844,0.7091000080108643,-1.361199975013733,0.03830000013113022,-1.757599949836731
COTY,20.835319693094654,21.106425149190105,20.552763341858462,20.837118499573748,2995484.568627451,8.633447941239457e-05,1.2288000583648682,-0.12520000338554382,-0.41429999470710754,1.9682999849319458
CPB,49.836538204924544,50.23079642573466,49.46291358220812,49.86478951548849,1783601.5806195394,0.0005668794740071579,1.5782999992370605,-1.1225999593734741,0.661300003528595,-1.1198999881744385
CRM,69.0871558379666,69.82770381254966,68.33654797458297,69.10968625893575,5079399.206513106,0.0003261159139621976,-0.2736999988555908,-0.9348999857902527,-1.2477999925613403,1.0189000368118286
CSCO,27.725160047656868,27.946371326449547,27.522249324861,27.743812946783155,28654349.631453533,0.0006727787718528949,0.3684999942779541,-0.2363000065088272,-0.8159999847412109,-1.1303000450134277
CSRA,28.873360071301235,29.19542299465243,28.5334789661319,28.870098039215712,1258491.1515151516,-0.00011297722459275913,0.6462000012397766,-0.43689998984336853,-0.7159000039100647,1.2511999607086182
CSX,33.82160691024622,34.16966775218429,33.506431453534525,33.85160047656869,7756074.243844321,0.0008868167145951865,0.19830000400543213,0.5120000243186951,-1.4187999963760376,-0.011099999770522118
CTAS,88.38347116759336,88.99747037331224,87.74005162827656,88.41803097696587,602204.9237490072,0.0003910211820825364,0.0940999984741211,-0.8021000027656555,-0.7418000102043152,-1.8818999528884888
CTL,30.086886338363794,30.362406751389983,29.78338586179502,30.068232724384455,6695583.1405877685,-0.0006199915062514704,1.5085999965667725,-0.16949999332427979,-0.02410000003874302,0.748199999332428
CTSH,55.38505671167587,55.878178951548946,54.872303733121456,55.39348014297053,4403324.354249405,0.00015208851980616283,-0.03629999980330467,-0.5835999846458435,-1.093000054359436,-0.05730000138282776
CTXS,73.02726370135026,73.7420277204131,72.27819412231932,73.04606433677517,1956169.8999205718,0.00025744680098923256,-0.3824999928474426,-0.7430999875068665,-1.4282000064849854,0.7749999761581421
CVS,82.40791890389201,83.04423661636207,81.7570832406672,82.42001588562353,5605183.055599682,0.00014679392335614183,1.0063999891281128,-0.859000027179718,0.015799999237060547,-1.0896999835968018
CVX,109.95906584590932,110.76083494837178,109.10510079428127,109.96900000000002,7070167.099285147,9.034411136796775e-05,1.5853999853134155,1.1633000373840332,-0.4284999966621399,-0.9708999991416931
CXO,116.3326791104051,118.0275573471008,114.5678127084989,116.35337569499583,1443521.923749007,0.00017790860443517875,1.8567999601364136,2.55430006980896,-1.375599980354309,2.7643001079559326
D,70.81461477362978,71.31391564733904,70.3019924543288,70.84073073868151,2619407.4082605243,0.0003687934352988267,3.3901000022888184,-1.2910000085830688,2.2346999645233154,-1.1576999425888062
DAL,40.25829936457513,40.76540158856231,39.73073193010331,40.24455520254163,11005102.131850675,-0.00034139946918847875,-0.6819999814033508,-0.805899977684021,-1.8564000129699707,2.4305999279022217
DE,94.74861405877665,95.49435083399516,94.03482724384425,94.80416203335976,3002921.157267673,0.0005862668824754275,0.7174000144004822,0.14949999749660492,-0.6690999865531921,-1.4838000535964966
DFS,57.9931612390787,58.46621882446383,57.521095154884854,58.009507545671156,3080513.0675139,0.00028186610702363667,-0.2849999964237213,0.14730000495910645,-1.5916999578475952,-1.1884000301361084
DG,69.56614376489274,70.21025798252576,68.9247339158063,69.58420571882452,3579369.4154090546,0.0002596371302802125,0.9685999751091003,-0.14059999585151672,-0.4505999982357025,0.20110000669956207
DGX,74.4321167593328,75.03507116759339,73.8680187450357,74.4690238284353,1368237.43923749,0.0004958487103333608,0.7078999876976013,-0.849399983882904,-0.24779999256134033,-0.8916000127792358
DHI,28.434444718030157,28.77680127084985,28.075864892772028,28.433153296266905,5357329.629070691,-4.5417513021914124e-05,0.026799999177455902,-0.6970000267028809,-1.226099967956543,2.115799903869629
DHR,81.42052328767112,81.9290525764895,80.91516441223835,81.44905068382958,2894164.1705551087,0.00035037107361340344,0.1988999992609024,-0.9380000233650208,-0.5958999991416931,-1.7386000156402588
DIS,92.98184050834001,93.61639857029405,92.2971984114375,92.98108022239884,7647465.507545671,-8.17671425960712e-06,0.29010000824928284,-0.4146000146865845,-0.7890999913215637,-1.3997000455856323
DISCA,43.867397378872106,44.348455281969756,43.352708419380434,43.860433677521854,3067299.4900714853,-0.0001587443469715716,0.5291000008583069,0.7608000040054321,-1.5,2.234800100326538
DISCK,41.26320095313734,41.72064519459888,40.81796060365368,41.26804050833987,1717430.4948371723,0.00011728501644906447,0.574999988079071,0.4975999891757965,-1.2851999998092651,1.8831000328063965
DISH,56.736834710087464,57.37652128673556,56.037221286735566,56.718328832406684,2337027.1334392377,-0.000326170428352967,0.6959999799728394,-0.047200001776218414,-0.8863000273704529,1.5681999921798706
DLR,79.46162430500388,80.20344583002397,78.67989308975375,79.48783161239078,1424176.6640190626,0.0003298108692858327,1.7898999452590942,-1.2913000583648682,0.7321000099182129,0.802299976348877
DLTR,70.93385226370147,71.65045623510723,70.2066862589356,70.94902065131059,2551309.1485305796,0.0002138384864920789,0.6812000274658203,-0.5239999890327454,-0.5631999969482422,0.4991999864578247
DOV,77.8284273232725,78.52665131056393,77.14622033359821,77.86285146942018,1350967.9301032566,0.00044230812996754067,0.2159000039100647,0.9639000296592712,-1.5895999670028687,-0.37459999322891235
DPS,74.95969817315317,75.48548673550438,74.4609664813345,74.99412231930097,1406456.6997617157,0.00045923538897236674,0.9998000264167786,-2.0097999572753906,0.5677000284194946,-1.5087000131607056
DRE,21.417045274027004,21.59791135822083,21.232979586973823,21.424686258935655,2528068.8300238284,0.0003567711984023009,1.6614999771118164,-1.888700008392334,1.0200999975204468,-0.620199978351593
DRI,63.64211675933279,64.21028816521061,63.09799308975379,63.66404289118346,1676379.841938046,0.00034452235354760346,0.6365000009536743,-0.6259999871253967,-0.4982999861240387,0.044199999421834946
DTE,85.21248212867361,85.8041483717235,84.60175972994433,85.2423828435267,1043527.0333598094,0.00035089594982028237,3.69350004196167,-1.1022000312805176,2.390500068664551,-1.7615000009536743
DUK,76.40875337569499,76.92639531374112,75.87898077839553,76.42594122319285,3123141.41223193,0.0002249460531485758,3.5889999866485596,-1.4153000116348267,2.4423000812530518,-1.07669997215271
DVA,68.46256060365378,68.99994543288325,67.91315003971415,68.47084988085786,1440931.9698173152,0.00012107752223962842,0.7189000248908997,-0.9351000189781189,-0.22509999573230743,-0.5677000284194946
DVN,50.10055218427317,50.75331032565534,49.39759189833192,50.06304606830825,5117704.09451946,-0.0007486168181733084,2.1710000038146973,2.628000020980835,-1.2230000495910645,2.5346999168395996
DWDP,71.46839449541282,71.99427155963302,70.86900000000001,71.42486238532112,7987472.449541285,-0.0006091099485171414,0.628600001335144,-0.093299999833107,-0.7723000049591064,-0.04610000178217888
DXC,85.88746511627907,86.64843488372091,85.20705209302325,85.9324186046512,1974555.3255813953,0.0005233998734421771,0.6485000252723694,-0.5389000177383423,-0.48260000348091125,-0.05220000073313713
EA,61.568371803018294,62.279706036536915,60.86856973788726,61.61553542494049,3786907.980937252,0.0007660365304622657,-0.04390000179409981,-0.9847000241279602,-1.0923000574111938,1.4467999935150146
EBAY,42.32241493248614,42.72955472597302,41.92303796664014,42.33258220810173,10910270.131056394,0.00024023382483739418,0.10490000247955322,-0.19349999725818634,-1.235200047492981,0.7006000280380249
ECL,112.41474980142979,113.1677910246226,111.67487482128683,112.45897537728352,1097335.0389197776,0.000393414351158103,0.5472000241279602,-0.5282999873161316,-0.4959999918937683,-1.7163000106811523
ED,67.1897259729945,67.655464892772,66.71814169976176,67.22300238284348,1974371.5393169182,0.0004952603893987475,3.635499954223633,-1.6119999885559082,2.5401999950408936,-1.1252000331878662
EFX,97.40753772835588,98.14260325655299,96.66645369340748,97.46656870532158,818882.823669579,0.0006060206257376415,0.1005999967455864,-1.0033999681472778,-0.6973000168800354,-1.2604000568389893
EIX,63.12193725178716,63.612153296266946,62.62670214455917,63.14673947577442,2134890.1818903894,0.0003929255828813471,3.351099967956543,-1.3567999601364136,2.172300100326538,-0.7013999819755554
EL,83.94429221604443,84.58924471803026,83.33329451945986,83.9761080222399,1799581.4654487688,0.00037901095304472207,0.7605000138282776,-0.6547999978065491,-0.2467000037431717,-1.7558000087738037
EMN,77.2550198570295,77.97126147736313,76.52411906274824,77.26507545671171,1386564.1938046068,0.000130161117048798,0.25679999589920044,0.7192999720573425,-1.4811999797821045,0.2287999987602234
EMR,58.71220413026203,59.172629547259774,58.259045988879976,58.72511914217641,3746098.411437649,0.00021997150516996815,0.5615000128746033,0.31929999589920044,-0.9262999892234802,-1.1432000398635864
EOG,88.37528196981735,89.41309722001593,87.29700619539325,88.3708578236695,3889026.162827641,-5.00608999399389e-05,2.1219000816345215,2.691999912261963,-1.0542000532150269,1.6964000463485718
EQIX,290.3103018268468,293.1586264495631,287.3705745035746,290.4308880063537,744558.3105639396,0.00041536996361513225,0.8518999814987183,-1.316499948501587,-0.03909999877214432,0.7368999719619751
EQR,65.61108737092935,66.13049912629076,65.05683216838774,65.61652104845119,1917699.6354249404,8.281645282171495e-05,1.8695000410079956,-1.7575000524520874,1.153499960899353,-0.5852000117301941
EQT,75.44761906274825,76.3970673550437,74.43866568705315,75.41602859412227,1931493.683081811,-0.0004187072967763943,1.6892000436782837,1.4026000499725342,-0.8079000115394592,2.236799955368042
ES,51.25877003205134,51.63686653322655,50.8829935948758,51.28571257005603,1602079.2778222577,0.0005256181135021958,3.454200029373169,-1.4930000305175781,2.375,-1.3098000288009644
ESRX,72.22598776806983,72.88923812549636,71.57540039714065,72.25398610007937,4416324.65528197,0.00038764900106943333,0.22619999945163727,-0.7965999841690063,-0.7754999995231628,0.09239999949932098
ESS,207.68152899126295,209.43700254169963,205.8673584590945,207.71353455123113,378875.95869737887,0.0001541088421471036,1.6920000314712524,-2.3721001148223877,1.1828999519348145,-0.14159999787807465
ETFC,26.77423193010325,27.096906989674366,26.452036616362175,26.78992216044482,3428001.8649722002,0.0005860198112323077,-1.1390000581741333,1.0276999473571777,-2.9830000400543213,0.9666000008583069
ETN,67.7661119936458,68.34505591739473,67.17929586973787,67.78467831612402,2834895.6266878475,0.0002739765043619836,0.19259999692440033,0.2808000147342682,-1.2477999925613403,-1.006100058555603
ETR,73.46083717235895,74.04764344718039,72.87484162033365,73.4819301032565,1427922.5512311358,0.0002871316433280301,3.1765999794006348,-1.100600004196167,1.9651999473571777,-0.6837999820709229
EVHC,52.63104377104379,53.31412457912459,51.81887845117847,52.573956228956206,2251115.0134680136,-0.0010846743290125389,0.5878000259399414,-0.12250000238418579,-1.0154999494552612,2.0039000511169434
EW,73.64081207307392,74.39735281969817,72.89749737887207,73.64446783161242,2073080.54725973,4.96431046261703e-05,0.26759999990463257,-1.0140000581741333,-0.7378000020980835,1.044800043106079
EXC,33.66422160444795,33.969245988880054,33.36908474980142,33.67821286735503,6562701.988085782,0.0004156122506402404,2.58489990234375,-1.0532000064849854,1.3486000299453735,0.3995000123977661
EXPD,47.80814400317712,48.203865607625126,47.41647450357427,47.84326767275617,1390130.4694201748,0.0007346796306653586,0.6085000038146973,-0.3361000120639801,-0.5627999901771545,-1.1622999906539917
EXPE,100.08292700555995,101.1929707704527,98.91174551231147,100.08482287529792,2300193.7180301826,1.8942988526496583e-05,0.48840001225471497,-0.3921999931335449,-0.8978000283241272,1.6715999841690063
EXR,66.6826528991263,67.28864988085789,66.05363653693404,66.69532168387602,934249.3002382844,0.0001899862137891469,1.6888999938964844,-1.9250999689102173,0.9966999888420105,0.18639999628067017
F,14.112668625893587,14.22891374106437,13.974048371723581,14.10263701350278,34462374.8943606,-0.0007108232083335695,0.09950000047683716,0.3499000072479248,-1.3991999626159668,-0.429500013589859
FAST,45.550841938046105,45.98537887212077,45.09045448768864,45.55820969023042,2431755.28355838,0.00016174788150647337,0.29269999265670776,0.07699999958276749,-1.1227999925613403,-0.14489999413490295
FB,96.4550593328038,97.38673939634621,95.46303907863377,96.4786103256553,34359265.20969023,0.00024416544880489897,0.11050000041723251,-0.9902999997138977,-0.9508000016212463,1.6079000234603882
FBHS,50.38265289912632,50.88640635424946,49.897117712470184,50.41117950754571,1327430.416203336,0.0005661990145001946,-0.11069999635219574,-0.31290000677108765,-1.381700038909912,0.972000002861023
FCX,20.785034868943598,21.08010389197779,20.462031691818883,20.766370135027838,23549216.57426529,-0.0008979890596020997,1.8711999654769897,2.083699941635132,-1.3760000467300415,3.81030011177063
FDX,162.25398339952343,163.5616625893566,161.0155666401905,162.31731532962675,1837186.1969817316,0.0003903258877002267,0.42879998683929443,-0.1639000028371811,-0.8032000064849854,-1.1295000314712524
FE,34.04672756155679,34.353340349483695,33.73695075456714,34.048872120730735,3907825.496425735,6.298870192633937e-05,2.8619000911712646,-0.555899977684021,1.3736000061035156,0.260699987411499
FFIV,113.23767084988083,114.43618355837984,112.08215901509143,113.29063947577437,1141482.6894360604,0.00046776505994866184,0.04690000042319298,-0.20329999923706055,-1.277400016784668,0.822700023651123
FIS,65.90591850675142,66.364016203336,65.46653042096908,65.95638999205723,1579718.7895154885,0.0007658111205996747,0.03420000150799751,-0.8939999938011169,-0.7570000290870667,-1.8113000392913818
FISV,85.18342335186654,85.80140190627485,84.63016624305,85.26878276409857,1075009.366163622,0.001002065999149199,0.2833000123500824,-1.1318000555038452,-0.4219000041484833,-2.0251998901367188
FITB,21.295806195393155,21.49862319301032,21.091466640190628,21.300814138204924,7466531.101667991,0.00023516098737095167,-0.6500999927520752,1.3551000356674194,-2.562299966812134,-0.7784000039100647
FL,53.64680301826848,54.220952819698155,53.053511437648936,53.647100873709334,2459645.0460683084,5.552156402577603e-06,0.5875999927520752,-0.3506999909877777,-0.7799000144004822,1.0253000259399414
FLIR,32.93404686258934,33.245052263701346,32.631266878474946,32.95123431294683,947756.5289912629,0.0005218748375867981,0.18860000371932983,-0.03150000050663948,-1.1640000343322754,-0.0348999984562397
FLR,57.77245822081016,58.36846791104053,57.175027323272495,57.7807386814932,1507770.5639396347,0.00014332886184954894,0.4025999903678894,0.8820000290870667,-1.4361000061035156,0.03959999978542328
FLS,54.37223232724384,54.917616123907926,53.814529229547226,54.37670643367757,1280979.6981731532,8.228660553788075e-05,0.6165000200271606,1.3174999952316284,-1.518399953842163,0.5945000052452087
FMC,61.933220810166745,62.51689213661625,61.330742811755265,61.923955520254204,1156382.624305004,-0.00014960129299492535,0.6092000007629395,0.5809000134468079,-1.0814000368118286,0.1599999964237213
FOX,30.52140290846881,30.817121813515843,30.21873515825496,30.527451668092382,3556472.5577416597,0.00019818091723079447,0.48989999294281006,-0.15880000591278076,-0.9014999866485596,0.7347000241279602
FOXA,30.896007014542366,31.21541881950384,30.586553635585975,30.905267750213852,11797312.638152268,0.00029973891665440334,0.26159998774528503,-0.21070000529289246,-1.0521999597549438,0.34060001373291016
FRT,130.11644956314527,131.1029009531374,129.0457312152501,130.10448768864165,421801.35266084195,-9.193206964817315e-05,2.2504000663757324,-1.7402000427246094,1.4248000383377075,-0.3921000063419342
FTI,40.19141302621126,40.676166640190665,39.70437235901507,40.1836695790309,2994211.212867355,-0.0001926642184814437,1.6095999479293823,2.0339999198913574,-1.1684999465942383,1.7066999673843384
FTV,61.095719602977724,61.588720347394506,60.63979404466494,61.09777227722771,1511361.5668316833,3.359767694573785e-05,0.6402999758720398,-0.09600000083446503,-0.66839998960495,-0.3443000018596649
GD,139.19668784749797,140.2331633836376,138.26692081016708,139.30958697378873,1576676.1366163623,0.0008110762406534194,0.16050000488758087,-0.4399000108242035,-0.8342999815940857,-2.2060999870300293
GE,26.52918975377282,26.713421366163683,26.33564551231135,26.52634154090546,42115682.83240667,-0.00010736147216687699,0.25369998812675476,-0.22310000658035278,-0.8985999822616577,-1.4686000347137451
GGP,24.565961080222387,24.796525972994417,24.328195472597287,24.568649722001567,4718237.749007149,0.0001094458210041138,2.002700090408325,-1.4988000392913818,1.0465999841690063,0.4593000113964081
GILD,82.52872088959492,83.40271032565525,81.51518737092925,82.4728014297063,11165045.750595711,-0.0006775757492162723,0.11500000208616257,-0.5325999855995178,-1.1455999612808228,1.3894000053405762
GIS,55.59682200158846,55.972036695790266,55.23811795075452,55.62522637013505,3335350.1771247024,0.0005108991399865349,1.4045000076293945,-1.2773000001907349,0.6225000023841858,-1.9845999479293823
GLW,21.512188244638622,21.711819857029383,21.33839841143766,21.529936457505944,9407878.969023034,0.0008250305671132504,0.2076999992132187,-0.004900000058114529,-1.1129000186920166,-0.7322999835014343
GM,34.56982922954734,34.89276576648136,34.21007370929309,34.55298649722,15058577.684670374,-0.00048720901151993085,0.1598999947309494,0.26330000162124634,-1.3543000221252441,0.2451000064611435
GOOG,725.3641676923074,730.8222477948707,719.4568432820516,725.4033527179479,1808413.801025641,5.4021176376982935e-05,-0.490200012922287,-1.246999979019165,-1.1474000215530396,-0.7803999781608582
GOOGL,682.3570406671957,687.3627760127081,676.6917895154892,682.233847180302,2457501.4948371723,-0.0001805410944002874,-0.19740000367164612,-1.267699956893921,-0.8781999945640564,-0.6714000105857849
GPC,89.42884034948365,90.08400182684682,88.74586092136607,89.45334392374892,752244.5281969818,0.0002740008052157302,0.46790000796318054,-0.31850001215934753,-0.6610999703407288,-1.4052000045776367
GPN,56.967212073073895,57.48442708498803,56.44729110405088,56.99956711675927,1396879.3717235902,0.0005679590506180102,0.20839999616146088,-0.8992999792098999,-0.7688999772071838,0.1193000003695488
GPS,32.984055520254174,33.35605131056391,32.61453296266881,32.99048451151712,5157228.138999206,0.0001949120919650284,0.8799999952316284,0.508899986743927,-1.0245000123977661,1.6714999675750732
GRMN,47.41312120730739,47.87350254169977,46.95109396346316,47.42383121525015,1322828.9316918189,0.00022588700490597106,0.4345000088214874,0.10520000010728836,-1.0494999885559082,0.5281000137329102
GS,187.49135814138216,189.1280457505959,185.9013687847495,187.5284590945198,3249413.787132645,0.00019788087037943318,-0.3686999976634979,0.9783999919891357,-2.0887999534606934,-1.1581000089645386
GT,27.44903478951549,27.783991501191398,27.123672279586962,27.4601909451946,3599274.9444003175,0.0004064316200790947,0.03779999911785126,-0.13449999690055847,-1.4027999639511108,1.413699984550476
GWW,230.3122955520251,232.4221200158857,228.1809291501193,230.36709293089712,628163.090548054,0.00023792641526446877,0.08299999684095383,-0.051100000739097595,-1.2381999492645264,-0.1703999936580658
HAL,46.96718752978555,47.54105853852262,46.386843050039694,46.96837172359015,10684218.034948371,2.521321515906549e-05,1.565999984741211,2.0998001098632812,-1.2180999517440796,1.394700050354004
HAS,70.83037212073064,71.48310579825264,70.18752446386024,70.86050833995243,1304916.510722796,0.00042547029359694304,0.4458000063896179,-0.7955999970436096,-0.5537999868392944,-0.23330000042915344
HBAN,10.618889594916599,10.721969261318492,10.513176648133438,10.621371564733918,10289948.698967434,0.00023373157759427573,-0.590499997138977,1.7173999547958374,-2.6881000995635986,-0.7167999744415283
HBI,23.45337974583002,23.7008778395552,23.197108737092904,23.45194400317711,3969971.6179507547,-6.121687656398747e-05,-0.009200000204145908,-0.18080000579357147,-1.381500005722046,1.069599986076355
HCA,68.10384432088948,68.90360452740263,67.34798069896732,68.16123907863378,3229329.355837967,0.0008427535672417297,0.3384999930858612,-0.4138000011444092,-0.9818999767303467,1.0853999853134155
HCN,67.71681096108014,68.26700929308973,67.12948204924541,67.71785941223185,2147373.3407466244,1.5482878428904166e-05,2.185800075531006,-2.0546000003814697,1.486899971961975,-0.1354999989271164
HCP,37.49687847498015,37.81630484511524,37.140105798252584,37.48071485305804,3345202.648133439,-0.00043106580012776397,2.0118000507354736,-1.7043999433517456,1.1224000453948975,0.6448000073432922
HD,114.92895146942023,115.77585837966626,114.10866219221624,114.97284352660826,5612783.840349483,0.00038190600911999344,0.026599999517202377,-1.0729999542236328,-0.7192000150680542,-1.5600999593734741
HES,64.43893169181904,65.24685766481336,63.618955917394686,64.43174741858608,3608127.664813344,-0.00011148963901683596,2.2318999767303467,2.553999900817871,-1.0336999893188477,2.3378000259399414
HIG,41.77171191421765,42.11156743447184,41.4502625099285,41.79652899126292,3265715.447180302,0.0005941120415709699,0.025499999523162842,-0.16429999470710754,-1.1141999959945679,-1.711300015449524
HII,133.7071207307387,134.96373566322487,132.4617134233518,133.80019857029404,332637.9253375695,0.0006961322556843502,0.2750999927520752,-0.14259999990463257,-1.0498000383377075,-0.011599999852478504
HLT,66.28403985507246,66.78783695652173,65.78455217391304,66.30644927536231,2536415.1195652173,0.00033808169114079944,0.5515000224113464,-0.44339999556541443,-0.6028000116348267,-0.41589999198913574
HOG,56.63592922954729,57.20176338363773,56.07349880857823,56.65288324066718,2138452.534551231,0.0002993508069970483,0.387800008058548,0.02800000086426735,-1.0836999416351318,0.4722999930381775
HOLX,32.31501985702937,32.626177680698994,31.99227926926132,32.32529308975368,2723707.2112787925,0.00031790890953372605,0.08500000089406967,-0.8525999784469604,-0.9199000000953674,0.46709999442100525
HON,106.22003542494039,106.88992501985699,105.54539396346313,106.24599682287543,2993908.5361397937,0.00024441149761600536,0.02410000003874302,-0.7846999764442444,-0.7868000268936157,-2.6201999187469482
HP,69.69048729150119,70.66341882446395,68.65321961874506,69.69231930103257,1773571.97299444,2.6287799132771672e-05,2.1610000133514404,2.8513998985290527,-1.2676000595092773,2.855299949645996
HPE,17.99747504302928,18.241245955249557,17.797558347676432,18.030877796901883,11664639.388984509,0.0018559688952335285,0.5303999781608582,0.13109999895095825,-1.1643999814987183,2.1006999015808105
HPQ,15.912801376936319,16.09833063683304,15.754650430292617,15.93846815834767,12578830.960413082,0.0016129643551355966,0.39969998598098755,0.34869998693466187,-1.2279000282287598,0.6729999780654907
HRB,28.725226370135026,29.01516489277201,28.428433439237484,28.730611596505153,2890863.5488482923,0.00018747376611540008,0.23240000009536743,-0.3368000090122223,-1.1110999584197998,1.2950999736785889
HRL,29.830745750595707,30.06619142176335,29.591325019857017,29.837982525814095,2084104.1683876093,0.0002425945123495088,1.2085000276565552,-1.145300030708313,0.3138999938964844,-0.9613999724388123
HRS,83.69758927720405,84.35641350278006,83.07219610802225,83.75922160444792,802896.1564733916,0.0007363692046104943,0.32339999079704285,-0.21330000460147858,-0.8723999857902527,-1.0647000074386597
HSIC,69.89021644162041,70.41756147736298,69.31615123113592,69.89932883240665,1029358.3677521843,0.00013038149329318652,0.12039999663829803,-1.337499976158142,-0.5218999981880188,-1.0858999490737915
HST,18.762362192216006,18.94990214455915,18.569168864177925,18.764480540111183,7621527.860206513,0.00011290411481640611,0.8499000072479248,0.11749999970197678,-0.6672999858856201,0.15970000624656677
HSY,98.07727561556793,98.78319714058777,97.41844535345496,98.14443208895949,1135862.1032565527,0.0006847302086040328,1.2585999965667725,-1.3521000146865845,0.501800000667572,-1.4739999771118164
HUM,162.66355837966623,164.4258121525019,161.09403661636213,162.81292295472608,1441347.2795869738,0.0009182423927504603,0.2987000048160553,-0.7111999988555908,-0.8429999947547913,0.8273000121116638
IBM,167.23087069102465,168.36292764098525,166.15624749801424,167.26192613185071,4352535.480540112,0.00018570399530744335,0.3441999852657318,-0.8069999814033508,-0.5397999882698059,-1.7265000343322754
ICE,48.73960223285484,49.15094282296657,48.326590669856465,48.75515948963318,3584690.866028708,0.00031919129548926964,0.257999986410141,-0.6586999893188477,-0.7595999836921692,-0.6456999778747559
IDXX,89.15552422557586,90.04726640190636,88.27333121525028,89.21214932486104,717869.6266878475,0.0006351272091891415,0.36000001430511475,-1.5827000141143799,-0.3203999996185303,0.35100001096725464
IFF,111.76356235107224,112.60822454328824,110.92285520254175,111.8052343129467,443823.5035742653,0.00037285821065327515,0.31040000915527344,-1.3594000339508057,-0.3255999982357025,-1.5993000268936157
ILMN,157.04219618745026,159.2163331215248,154.7395654487688,157.1161771247021,1343873.8411437648,0.00047108954820987377,0.09989999979734421,-0.7314000129699707,-1.2652000188827515,2.8239998817443848
INCY,80.26372509928517,81.8260511517078,78.61125655281964,80.25800881652107,1585684.7704527404,-7.121875737796871e-05,0.2736000120639801,-0.21570000052452087,-1.7312999963760376,4.957799911499023
INFO,33.794193020719725,34.12587928026173,33.485687786259504,33.835076335877844,1440383.5790621592,0.0012097733812744984,0.6958000063896179,-0.6840999722480774,-0.4077000021934509,-0.008899999782443047
INTC,31.80453224781575,32.08551652104841,31.53891993645748,31.831530738681504,29326713.900714852,0.0008488881601963602,0.1370999962091446,-0.7735000252723694,-0.8281000256538391,-0.4952999949455261
INTU,99.01189833200958,99.81208999205728,98.25174376489277,99.10979825258127,1701220.7084988086,0.0009887692511804072,0.16509999334812164,-0.7142000198364258,-0.7659000158309937,-1.3355000019073486
IP,48.563686258935675,49.00297998411438,48.133610881652146,48.56741064336776,3158104.383637808,7.669072755772095e-05,0.4108000099658966,0.22519999742507935,-1.059999942779541,-0.4027000069618225
IPG,20.149622478157273,20.333656076250957,19.967156235107208,20.157347895154874,4491268.3749007145,0.0003834025677640412,-0.05249999836087227,-0.3824999928474426,-1.1648000478744507,-0.6276999711990356
IQV,67.53625313283203,68.18711102756893,66.8697174603175,67.56620718462818,984176.4193817878,0.00044352552009716597,0.26570001244544983,-1.0374000072479248,-0.714900016784668,0.9230999946594238
IR,67.13995234312944,67.71506719618739,66.58687315329631,67.16438443208894,2032714.8895949165,0.0003638979192990208,0.07429999858140945,0.036400001496076584,-1.2079999446868896,-0.8177000284194946
IRM,33.545841858617955,33.8535562351073,33.22200643367753,33.55007545671169,1653384.456711676,0.00012620336408836284,1.131100058555603,-1.0931999683380127,0.08510000258684158,0.6966000199317932
ISRG,201.88875146942016,203.85556417791886,199.95035043685465,201.975389833201,1140628.777601271,0.00042913913306345184,-0.18129999935626984,-1.00409996509552,-1.0997999906539917,0.5554999709129333
IT,86.71324861000805,87.41529634630655,86.01813574265286,86.7662589356633,459504.09213661635,0.0006113290241686615,0.24809999763965607,-0.7059000134468079,-0.7246999740600586,-0.8554999828338623
ITW,102.1949483717237,102.88698189038924,101.5452130262112,102.2540548054013,1687350.7847498015,0.0005783694264671966,0.1647000014781952,-0.5422999858856201,-0.7674999833106995,-2.6779000759124756
IVZ,33.986018347895154,34.28965615567909,33.65186441620332,33.97203335980936,3335801.8117553615,-0.0004114923949795757,-0.5281000137329102,0.600600004196167,-2.0557000637054443,-0.5044999718666077
JBHT,83.01665607625092,83.76298721207306,82.28650381254965,83.04664376489276,888360.3193010326,0.0003612249644733357,0.22139999270439148,-0.16990000009536743,-1.0728000402450562,-0.1728000044822693
JCI,40.90810071485304,41.251260127084976,40.57848435266083,40.92548689436055,3723501.131056394,0.0004250057862304659,0.5820000171661377,-0.04230000078678131,-0.7419000267982483,-0.850600004196167
JEC,51.98119936457503,52.48387037331214,51.477430103256516,51.99983320095311,1026252.5663224781,0.00035847261328829627,0.12430000305175781,0.45089998841285706,-1.4732999801635742,0.14820000529289246
JNJ,107.31420976965839,107.9349737887212,106.67817426528993,107.34156473391583,7606657.673550437,0.0002549053318862077,0.7429999709129333,-1.385599970817566,0.10140000283718109,-2.1719000339508057
JNPR,24.61248610007941,24.873455361397948,24.374734471802988,24.62905083399522,5791269.08101668,0.0006730215650891581,0.1527000069618225,0.06270000338554382,-1.298200011253357,0.671999990940094
JPM,67.61748125496429,68.1450497220016,67.09867021445604,67.64323272438438,16589033.246227164,0.00038084041200803876,-0.43689998984336853,0.2574000060558319,-1.7276999950408936,-2.0848000049591064
JWN,58.245340031771285,58.870006195393174,57.64694590945203,58.263907863383636,2284699.419380461,0.0003187865604737335,0.771399974822998,0.13750000298023224,-0.8623999953269958,1.0744999647140503
K,67.74049547259727,68.2016566322478,67.2881907863385,67.75897140587769,2053022.3471008737,0.00027274576531385707,1.6721999645233154,-1.2949999570846558,0.8465999960899353,-1.6612000465393066
KEY,14.173228752978558,14.313933280381283,14.033190706910245,14.176497220015865,11612727.7299444,0.00023060850101780768,-0.5900999903678894,1.4266999959945679,-2.5455000400543213,-0.7330999970436096
KHC,82.2101022900763,82.83486061068699,81.48486320610691,82.18708396946569,3314303.112977099,-0.00027999382033850316,0.8199999928474426,-0.9142000079154968,-0.13050000369548798,-0.9728000164031982
KIM,23.601858617950732,23.802000079428105,23.38039984114373,23.593343923748996,3395779.837172359,-0.00036076371524656255,2.25219988822937,-1.1606999635696411,1.148800015449524,0.014399999752640724
KLAC,72.36314543288319,73.04231731532961,71.67358165210493,72.3909030976966,1543040.1509134234,0.00038358842263362474,0.20250000059604645,-0.9035999774932861,-0.7720000147819519,0.23000000417232513
KMB,114.75624789515487,115.51968832406685,114.02673788721233,114.80027005559968,1795463.4503574264,0.0003836144981407142,0.9793000221252441,-1.5921000242233276,0.4004000127315521,-1.8206000328063965
KMI,29.08981572676727,29.362681254964258,28.768498808578226,29.065814138204907,13516693.4725973,-0.0008250856171728225,1.6125999689102173,0.6754999756813049,-0.38530001044273376,0.953499972820282
KMX,56.28151310563943,56.89084328832415,55.678337172359,56.295448768864205,2012341.5647339157,0.00024760640671856376,0.210999995470047,0.5824999809265137,-1.527500033378601,0.7667999863624573
KO,42.09836997617153,42.34550349483719,41.868999285146955,42.116425734710106,13742587.914217632,0.00042889448092153386,1.1002000570297241,-1.2297999858856201,0.3301999866962433,-2.033900022506714
KORS,59.067617156473496,59.76370341540906,58.2920687053217,59.02374900714846,3461911.501985703,-0.0007426768073075718,0.36469998955726624,0.08370000123977661,-1.3142000436782837,2.152100086212158
KR,28.484666401906313,28.753201191421798,28.219884908657622,28.4969896743447,8859911.963463066,0.00043262828725149115,0.8497999906539917,-0.3779999911785126,-0.4528999924659729,0.4169999957084656
KSS,50.78388800635433,51.4063681493249,50.20903478951552,50.808693407466244,3401699.226370135,0.0004884502169036081,0.7587000131607056,0.23510000109672546,-1.027500033378601,1.958299994468689
KSU,100.98267672756154,102.02387394757751,99.94816163621918,101.00065131056402,1246193.8363780777,0.00017799669789876307,0.37040001153945923,0.14020000398159027,-1.1230000257492065,0.4185999929904938
L,43.332335186656124,43.589100317712536,43.06194876886412,43.331165607625174,1064189.2692613185,-2.6990907042333536e-05,0.3725999891757965,-0.09160000085830688,-0.8190000057220459,-2.141200065612793
LB,66.42372120730737,67.14950826052427,65.7118842732327,66.44763701350278,2544964.198570294,0.00036004917762402544,0.8363999724388123,0.1363999992609024,-0.8568000197410583,1.6441999673843384
LEG,41.98086179507549,42.31439936457506,41.63541930103253,41.99123113582211,984472.0103256552,0.00024700161700437874,0.5860999822616577,-0.8363999724388123,-0.3653999865055084,-0.8503999710083008
LEN,44.67990929308966,45.19796028594114,44.12642374900706,44.66299976171556,3436372.225575854,-0.000378459393531313,0.06930000334978104,-0.625,-1.198699951171875,1.9938000440597534
LH,119.64764495631448,120.6047550436853,118.69526648133447,119.69945988880077,884683.2382843527,0.0004330627026149426,0.20489999651908875,-1.253100037574768,-0.4934000074863434,-1.1705000400543213
LKQ,30.08608419380458,30.38854924543286,29.765734392374917,30.089416997617118,1858049.7434471804,0.00011077559283115905,0.35530000925064087,0.0215000007301569,-1.052899956703186,0.013399999588727951
LLL,129.8796068308181,130.91470182684674,128.90410595710887,129.97149324860996,649444.4876886418,0.0007074737907973574,0.6001999974250793,-0.8130999803543091,-0.3075999915599823,-1.5562000274658203
LLY,70.9655420174742,71.55601779189831,70.36812779984116,70.98427323272448,4694385.003971406,0.00026394803333789236,0.6743000149726868,-0.911300003528595,-0.2669999897480011,-0.7664999961853027
LMT,206.9121644956316,208.33766997617144,205.5926665607622,207.02929308975388,1529610.9197776013,0.0005660788209711594,0.5189999938011169,-1.159500002861023,-0.2125999927520752,-1.7889000177383423
LNC,53.463022239872885,54.01901556791103,52.91870325655287,53.484622716441606,2032643.4678316123,0.0004040264778112742,-0.5483999848365784,1.151900053024292,-2.3654000759124756,-0.45179998874664307
LNT,32.78574265289914,33.021742096902294,32.542764733915796,32.786640190627466,1230025.783161239,2.7375854737529467e-05,3.5699000358581543,-1.3145999908447266,2.343899965286255,-1.0293999910354614
LOW,65.17691898332018,65.7604351866561,64.65109809372511,65.20807783955519,5928936.038125496,0.0004780658049053167,0.15520000457763672,-0.7754999995231628,-0.8119999766349792,-0.37940001487731934
LRCX,89.4398934074662,90.39660357426537,88.3780458300238,89.42768943606046,2211512.298649722,-0.00013644885901351725,-0.19120000302791595,-0.12139999866485596,-1.580199956893921,1.0994000434875488
LUK,23.726993645750596,23.93625107227961,23.50121382049245,23.720774424146107,1689384.5226370136,-0.00026211587095034325,0.19990000128746033,1.0419000387191772,-1.6597000360488892,-0.21780000627040863
LUV,37.48945687053218,37.92369356632251,37.04772637013507,37.49858610007942,6799713.157267673,0.00024351458541447217,0.03550000116229057,-0.21469999849796295,-1.4078999757766724,1.5943000316619873
LYB,86.3207823669579,87.25539118347889,85.36935274026996,86.31923749007139,3486587.4861000795,-1.7896928690304328e-05,0.6049000024795532,1.3183000087738037,-1.5496000051498413,0.7919999957084656
M,45.04443677521853,45.540025258141455,44.552070373312276,45.02970214455923,6331553.343129468,-0.0003271132178392397,0.9054999947547913,0.18880000710487366,-0.8263000249862671,1.5140999555587769
MA,93.22255718824451,93.93634289118354,92.5159656076251,93.25377918983335,4591886.181890389,0.00033491895664047915,0.15629999339580536,-0.9567000269889832,-0.6833000183105469,-1.0194000005722046
MAA,83.36211278792692,84.04072255758538,82.65178181096107,83.38066719618752,601451.2231930103,0.00022257603172559943,1.9244999885559082,-1.9474999904632568,1.2425999641418457,-0.09160000085830688
MAC,69.72076250992839,70.3461734710087,69.07787315329632,69.73243050039711,1169475.760127085,0.00016735316781800236,1.982200026512146,-1.38510000705719,1.0027999877929688,0.21860000491142273
MAR,72.82486767275623,73.47966957903093,72.21795599682297,72.89574821286735,2652236.023034154,0.0009733013237954103,0.09449999779462814,-0.5037999749183655,-1.0058000087738037,-0.24220000207424164
MAS,28.141409531374112,28.42969722001595,27.857386735504345,28.146671961874542,3962446.7180301826,0.0001869995351356913,0.34459999203681946,-0.5375999808311462,-0.8367000222206116,0.6855000257492065
MAT,30.857838363780754,31.164468864177916,30.52612843526613,30.843691024622736,4793055.395552025,-0.00045846825014884523,1.3223999738693237,0.5171999931335449,-0.5566999912261963,1.2000999450683594
MCD,114.14522200158854,114.84208856235115,113.50627974583016,114.19626687847489,5150398.102462271,0.0004471924097325843,0.7886999845504761,-1.3602999448776245,0.10610000044107437,-2.1396000385284424
MCHP,54.41622446386022,54.91582176330414,53.881950198570316,54.42401509134232,2218817.437648928,0.0001431673652271821,0.021299999207258224,0.01140000019222498,-1.3551000356674194,0.2651999890804291
MCK,169.75477347100863,171.32527283558372,168.12213828435281,169.7745909451945,1568788.3669579031,0.00011674177862951853,0.3547999858856201,-0.8090000152587891,-0.6611999869346619,0.16449999809265137
MCO,97.44271644162016,98.28311207307375,96.65877776012712,97.52048451151713,1086449.8633836377,0.0007980901265571163,-0.14499999582767487,-0.4586000144481659,-1.1782000064849854,-1.194100022315979
MDLZ,39.08063542494043,39.40070476568701,38.75545496425734,39.081155679110466,8979732.710881652,1.3312326280708105e-05,1.0455000400543213,-1.0707999467849731,0.1315000057220459,-0.6611999869346619
MDT,71.14175718824467,71.66007378872126,70.62594535345511,71.16799046862579,5662533.451945988,0.00036874659015950247,0.2777000069618225,-1.2346999645233154,-0.4239000082015991,-1.2243000268936157
MET,49.46210889594909,49.90851930103249,48.999098490865855,49.46685861795074,6467918.124702144,9.602748664922243e-05,-0.4392000138759613,1.039199948310852,-2.182300090789795,-1.097000002861023
MGM,23.620872279586983,23.912043844320895,23.314291818903914,23.619968228752956,8722944.131056394,-3.8273389031796216e-05,0.10400000214576721,0.06459999829530716,-1.5506999492645264,2.3905999660491943
MHK,180.08591739475781,181.7490359809371,178.38368443208876,180.09055996822894,680868.760127085,2.5779769669350946e-05,-0.05380000174045563,-0.5285999774932861,-1.1518000364303589,0.13500000536441803
MKC,83.29021834789509,83.86203320095315,82.73195599682275,83.32607625099277,713485.1477362986,0.00043051757828156353,1.124500036239624,-1.160599946975708,0.33660000562667847,-2.286799907684326
MLM,155.58182208101664,157.40523558379658,153.70133248609994,155.61359809372547,715539.2605242255,0.00020423988023668462,0.557200014591217,0.558899998664856,-1.2532999515533447,1.2755000591278076
MMC,58.81366163621924,59.189090548053954,58.488296822875355,58.853677521842776,2079731.7744241462,0.0006803841915344428,0.5404999852180481,-0.38199999928474426,-0.46880000829696655,-3.150899887084961
MMM,160.19989038919778,161.1680450357426,159.29996147736296,160.30633042096915,2302662.2795869736,0.0006644201285829827,0.30469998717308044,-1.1491999626159668,-0.353300005197525,-2.8369998931884766
MNST,39.05115615567907,39.45948371723593,38.63957212073077,39.061913820492464,3786129.639396346,0.00027547621818189576,0.7039999961853027,-1.1719000339508057,-0.27390000224113464,1.0556999444961548
MO,53.741699920571925,54.111762589356694,53.37653486894359,53.76911834789516,7211928.772041302,0.000510189059217646,1.403499960899353,-1.4515000581741333,0.6880000233650208,-1.6991000175476074
MON,108.68910007942797,109.44942192216048,107.93432883240665,108.6824940428913,3024216.5369340745,-6.077919986308769e-05,0.5604000091552734,-0.38089999556541443,-0.588100016117096,-0.8248000144958496
MOS,38.035407069102476,38.45081532962673,37.57718514694193,38.01189833200955,4366893.496425735,-0.0006180750754215535,1.2196999788284302,1.2747999429702759,-1.159600019454956,1.954800009727478
MPC,46.08010897537738,46.70937903097686,45.45030484511521,46.08660047656865,5883098.996822875,0.00014087425866850665,1.0525000095367432,1.0662000179290771,-1.3092000484466553,2.975600004196167
MRK,56.32969722001578,56.74507291501193,55.898728117553645,56.32106751389999,11312748.61477363,-0.00015319993789571283,0.2282000035047531,-1.0073000192642212,-0.6021999716758728,-0.8482999801635742
MRO,23.843815726767264,24.156702144559183,23.500500953137397,23.82463463065926,11674367.720413025,-0.0008044474226694407,2.3826000690460205,2.9976000785827637,-1.3875000476837158,3.148099899291992
MS,34.72872589356636,35.07287966640189,34.375742096902314,34.73113979348689,12057364.586973788,6.950729859552676e-05,-0.5325999855995178,1.2337000370025635,-2.422800064086914,-0.28760001063346863
MSFT,51.02639428117556,51.43600706910241,50.630396743447186,51.063080619539406,33869462.74583002,0.0007189678769322199,0.12389999628067017,-0.7799000144004822,-0.8011999726295471,-1.0205999612808228
MSI,70.36849880857834,70.91341334392371,69.86710698967441,70.40389992057187,1538384.543288324,0.0005030818134949449,0.00139999995008111,-0.7487000226974487,-0.8925999999046326,-1.3125
MTB,128.05187053216832,129.06496703733131,127.02475496425738,128.11027005559967,827528.3383637808,0.0004560614631293258,-0.10180000215768814,1.0204999446868896,-1.8259999752044678,-1.5954999923706055
MTD,356.1008260524226,359.26321008737136,353.07946386020694,356.29749801429693,170365.17394757745,0.0005522929111245746,0.042100001126527786,-0.9528999924659729,-0.7817999720573425,-0.8790000081062317
MU,22.985880063542492,23.334586576648167,22.60530770452738,22.972592613185103,30248411.18903892,-0.0005780701161172315,0.03700000047683716,0.5842999815940857,-2.160399913787842,4.0071001052856445
MYL,44.95746227164412,45.563010722795845,44.3015140587768,44.93548292295468,5750885.85782367,-0.0004888921122068027,0.4936000108718872,-0.009800000116229057,-1.19760000705719,2.4863998889923096
NAVI,15.363197916666662,15.582568541666653,15.158367083333342,15.37058541666667,3198619.546875,0.00048085691794629086,0.44519999623298645,1.1806000471115112,-1.7508000135421753,1.6476000547409058
NBL,46.33218824463855,46.912128673550384,45.7162706115965,46.31893169181888,3791614.9888800634,-0.00028611972198838085,1.8875000476837158,2.3329999446868896,-1.2034000158309937,2.4470999240875244
NCLH,44.11159968228754,44.66437490071482,43.54352859412233,44.11788721207309,1452601.49324861,0.0001425368798873411,0.014299999922513962,-0.12039999663829803,-1.527500033378601,1.948199987411499
NDAQ,53.501270849880896,53.960815965051616,53.06967100873711,53.54083796664016,1121027.321683876,0.0007395547083411638,0.4805999994277954,-0.6467000246047974,-0.5706999897956848,-0.49140000343322754
NEE,109.44144956314545,110.24737482128653,108.66761374106443,109.5070691024623,2053307.3471008737,0.00059958580207749,3.107100009918213,-1.374500036239624,2.019399881362915,-1.3813999891281128
NEM,29.04835575853854,29.45907577442414,28.609101270849894,29.030659253375664,7768097.128673551,-0.0006092084973751375,1.3925000429153442,0.41670000553131104,-0.7386000156402588,3.058199882507324
NFLX,94.85403240667203,96.18729825258133,93.48348729150108,94.90615210484518,16208007.963463066,0.0005494726671153882,0.20229999721050262,-0.0471000000834465,-1.4733999967575073,2.666300058364868
NFX,32.94637021445595,33.502425734710016,32.35888903891979,32.935651310563905,3099805.027799841,-0.0003253440006372825,2.0897998809814453,2.421299934387207,-1.304800033569336,3.610599994659424
NI,29.344050913423324,29.59258069896742,29.111332883240664,29.365881652104814,2490807.3288324066,0.0007439579063538317,2.801100015640259,-0.8873999714851379,1.5341999530792236,-0.7257999777793884
NKE,48.762295393169175,49.16320349483715,48.36645830023829,48.77831175536138,8398731.98570294,0.0003284579214957845,0.27959999442100525,-0.6779999732971191,-0.729200005531311,-0.5133000016212463
NLSN,43.45559968228752,43.83301445591737,43.098910405083345,43.47895949166007,2541338.123907863,0.0005375557935764004,0.42100000381469727,-0.3993000090122223,-0.7389000058174133,-0.30070000886917114
NOC,176.36585385226374,177.66697458300217,175.16761715647357,176.49545671167576,1144918.900714853,0.0007348523344013159,0.4745999872684479,-1.0054999589920044,-0.323199987411499,-1.6985000371932983
NOV,52.178705321683935,52.757625099285185,51.554942494042805,52.17377283558371,4322268.953931692,-9.453063409324469e-05,1.6639000177383423,1.74590003490448,-1.0311000347137451,2.0037999153137207
NRG,22.48283955520253,22.786245830023812,22.177975456711664,22.4773629864972,5078764.903097697,-0.00024358883547085028,2.2994000911712646,1.0898000001907349,-0.2939000129699707,2.947000026702881
NSC,98.08621509134234,99.01994503574261,97.24673010325652,98.16047656870533,1879696.0460683082,0.0007571041179827319,0.5508000254631042,0.36079999804496765,-1.0121999979019165,-0.32179999351501465
NTAP,37.058345035742654,37.458696822875275,36.703893566322485,37.09128832406675,3925298.257347101,0.0008889573533929975,0.11140000075101852,0.26170000433921814,-1.4398000240325928,0.5418000221252441
NTRS,71.6442254169977,72.26055083399521,71.02567299444009,71.67401747418573,1225122.2930897537,0.00041583333499149483,-0.4025999903678894,0.7652999758720398,-1.9732999801635742,-1.769700050354004
NUE,50.693435266084165,51.208182446386076,50.153095949165966,50.693852263701395,2396489.4590945193,8.225870175111795e-06,0.4016000032424927,0.5813999772071838,-1.3342000246047974,0.6402000188827515
NVDA,56.31654567116754,57.071318983320104,55.51310349483719,56.36936814932491,10465799.544082604,0.0009379566436088721,0.3799000084400177,-0.025499999523162842,-1.2161999940872192,1.8696999549865723
NWL,38.554074662430494,38.90819245432878,38.19363423351869,38.560428911834784,3392146.6266878475,0.0001648139518306523,0.5164999961853027,-0.042500000447034836,-0.8482999801635742,-0.16779999434947968
NWS,14.795106928999147,14.94498237810093,14.636796749358425,14.797733105218137,1010693.0940975193,0.00017750302391146048,0.5001000165939331,0.21719999611377716,-1.1313999891281128,1.044700026512146
NWSA,14.712464242942692,14.868044910179654,14.54834319931565,14.714502566296012,3438939.24037639,0.0001385439801016087,0.24860000610351562,0.6665999889373779,-1.5245000123977661,0.8185999989509583
O,51.168482030620446,51.58643615136875,50.72034371980677,51.167606355591296,1961759.8938053097,-1.71135627714268e-05,2.2453999519348145,-1.9221999645233154,1.455199956893921,0.10220000147819519
OKE,49.32501191421766,49.89992613185066,48.722317156473444,49.334491660047675,2303382.5814138204,0.00019218942808366677,2.074700117111206,1.2603000402450562,-0.4242999851703644,2.1364998817443848
OMC,74.26129388403483,74.80997998411432,73.6869522637016,74.26488482922949,1693418.271644162,4.8355543067522775e-05,0.45170000195503235,-0.9524000287055969,-0.4097000062465668,-1.3528000116348267
ORCL,40.368928321400205,40.68189164677801,40.0870953858393,40.386626093874284,16003635.342879873,0.0004384008496132798,0.17389999330043793,-1.145900011062622,-0.5458999872207642,-1.5613000392913818
ORLY,204.33396354249416,206.2420242255761,202.4869979348689,204.4118173153296,840624.0190627482,0.0003810123950307594,0.5552999973297119,-0.42649999260902405,-0.6328999996185303,-0.21799999475479126
OXY,78.62092930897542,79.30444710087365,77.86877140587784,78.61292692613202,4562099.872915012,-0.00010178438379877133,1.319000005722046,0.9061999917030334,-0.6438999772071838,0.1736000031232834
PAYX,49.92831564733915,50.27805202541696,49.57484058776812,49.959312946783086,2167482.8514694204,0.0006208360735195579,0.5483999848365784,-1.1974999904632568,-0.17659999430179596,-1.7818000316619873
PBCT,15.793078713264494,15.91861366163623,15.662490309769678,15.797397855440819,3359075.0643367753,0.00027348322988456064,0.17479999363422394,0.8253999948501587,-1.454800009727478,-1.6589000225067139
PCAR,60.557259729944505,61.10060969023042,59.996248451151665,60.58102462271639,1938611.9467831613,0.0003924367264613067,0.041099999099969864,0.2896000146865845,-1.3831000328063965,-0.8744999766349792
PCG,53.15467037331219,53.56044876886416,52.73377934868944,53.163212152502034,3107016.904686259,0.00016069668252762645,3.041100025177002,-1.1818000078201294,1.8753999471664429,-0.9672999978065491
PCLN,1312.6784829229537,1324.1831840349475,1300.6522115965051,1312.8735377283556,630292.6584590945,0.0001485929783564314,-0.20520000159740448,-0.5636000037193298,-1.2967000007629395,0.4514999985694885
PDCO,42.952994440031844,43.32570405083396,42.57713550436861,42.967486100079455,968354.6822875298,0.00033738416230428653,0.28200000524520874,-0.9749000072479248,-0.6222000122070312,-0.22460000216960907
PEG,40.61517871326451,40.93921818903892,40.2853703733121,40.63268467037331,3141147.8800635426,0.0004310200684425004,3.09089994430542,-0.7656000256538391,1.7036999464035034,-0.7113000154495239
PEP,97.42172994440034,97.98894416203325,96.89305512311357,97.46815726767288,4514717.656870532,0.0004765602427613998,1.1282999515533447,-1.6639000177383423,0.5795000195503235,-2.691800117492676
PFE,32.18135988880062,32.42113367752185,31.941460921366144,32.18340746624303,28218910.923749007,6.36261938428502e-05,0.703000009059906,-0.9258000254631042,-0.21629999577999115,-0.7422000169754028
PFG,50.7750714853058,51.206866481334444,50.32897370929304,50.79669579030979,1360958.0127084989,0.0004258842847763846,-0.20469999313354492,0.5546000003814697,-1.6759999990463257,-1.7446000576019287
PG,83.03760794281175,83.50562176330426,82.56364146147739,83.04609610802231,8966642.281175537,0.00010222073372357839,1.062000036239624,-1.3030999898910522,0.38029998540878296,-2.712599992752075
PGR,32.010532168387584,32.23081048451151,31.799434710087358,32.02709293089755,3379297.1366163623,0.0005173535517264215,0.6723999977111816,-1.232100009918213,-0.029899999499320984,-2.322700023651123
PH,125.68210881652098,126.73133955520255,124.61942525814145,125.73336775218425,1163719.5321683877,0.0004078459229077815,0.1826000064611435,0.5647000074386597,-1.3646999597549438,-1.2710000276565552
PHM,20.81955925337569,21.08006727561555,20.556769817315352,20.817875297855426,6303634.393169182,-8.08833414660612e-05,0.423799991607666,-0.41350001096725464,-0.9754999876022339,1.8629000186920166
PKG,74.85273232724387,75.55193812549652,74.10657513899923,74.86203733121539,950615.3613979348,0.00012431081247427954,0.3995000123977661,0.22609999775886536,-1.0973999500274658,0.1363999992609024
PKI,49.91692613185071,50.321396584590985,49.520686656076265,49.9508260524226,787695.7474185862,0.0006791267651847647,0.10700000077486038,-0.8070999979972839,-0.7824000120162964,-1.0351999998092651
PLD,45.889598888006425,46.25600754567123,45.50292001588565,45.8980897537729,2716866.35822081,0.00018502811033928337,1.5580999851226807,-1.3983999490737915,0.6980999708175659,-0.30329999327659607
PM,93.0248650516283,93.6440776806991,92.41847887212055,93.06009531374102,4627417.274027006,0.0003787187661402873,1.2402000427246094,-1.5721999406814575,0.5857999920845032,-1.691100001335144
PNC,95.02611596505153,95.77636918189052,94.30877426528993,95.0664257347101,2390965.0063542495,0.0004241967510635527,-0.38119998574256897,0.866100013256073,-1.96589994430542,-2.031599998474121
PNR,63.056207307386735,63.62658888006357,62.46861691818899,63.0673868149325,1280104.3939634631,0.00017729432236963146,0.482699990272522,0.741599977016449,-1.256500005722046,-0.22840000689029694
PNW,67.53129078633833,68.02775877680688,67.02743558379663,67.56025416997609,818361.108816521,0.00042888834643181877,3.7221999168395996,-1.2003999948501587,2.4565999507904053,-1.3385000228881836
PPG,100.16525814138211,100.95217474185856,99.39258586179511,100.19876092136627,1601671.6449563145,0.0003344750525863208,0.16339999437332153,-0.42719998955726624,-0.9085000157356262,-1.2785999774932861
PPL,34.05368149324863,34.2959965051628,33.800454567116795,34.05885313741067,4442348.9213661635,0.00015186740273780033,3.469599962234497,-1.2386000156402588,2.246500015258789,-1.0313999652862549
PRGO,125.82876489277197,127.17968268467044,124.33073193010344,125.79861239078627,1515242.9785544083,-0.00023963123226546752,0.5289999842643738,-0.4237000048160553,-0.8597000241279602,1.6633000373840332
PRU,87.01823661636217,87.80535544082605,86.25949722001573,87.04399523431285,2425830.7839555205,0.0002960140190410186,-0.4595000147819519,0.9312999844551086,-2.126699924468994,-1.3870999813079834
PSA,198.4695035742652,200.066331135822,196.817968149325,198.5062569499603,733367.0246227165,0.00018518399569305286,1.6901999711990356,-1.7996000051498413,0.984499990940094,-0.5745000243186951
PSX,78.23131143764888,79.03154964257344,77.43390293884035,78.25181493248607,3249398.885623511,0.0002620880880097164,0.7967000007629395,0.7742000222206116,-1.072700023651123,0.6269999742507935
PVH,111.80268467037332,112.95584050834007,110.58058641779178,111.75251787132643,1042719.8316123908,-0.000448708357896753,0.6459000110626221,-0.01080000028014183,-0.8999000191688538,1.3522000312805176
PWR,29.921834710087364,30.2315097696584,29.60128578236695,29.912688641779177,2082162.6123907864,-0.0003056653576494634,0.35499998927116394,0.7926999926567078,-1.4708000421524048,0.5630000233650208
PX,122.81329229547273,123.64218617950753,121.9793842732328,122.84086576648136,1320430.0015885623,0.0002245153638767736,0.8385999798774719,-0.11699999868869781,-0.4327000081539154,-1.5666999816894531
PXD,163.7366878474981,166.05630802224002,161.38549396346298,163.77706910246218,1910634.746624305,0.0002466231331226465,2.170099973678589,2.414400100708008,-1.0009000301361084,2.661799907684326
PYPL,46.17359541984735,46.65958564885492,45.61799450381681,46.165045801526745,8854490.015267175,-0.00018516249910511704,0.328900009393692,-0.484499990940094,-0.917900025844574,0.9107000231742859
QCOM,63.92292787926928,64.45844884829224,63.39276854646563,63.94096108022237,11098346.215250198,0.0002821084945788251,0.03280000016093254,-0.29019999504089355,-1.1505000591278076,-0.5976999998092651
QRVO,62.19302816901409,63.19883892445589,61.15086798975669,62.22192061459666,1816065.770806658,0.00046456084280143794,0.10140000283718109,0.10700000077486038,-1.6966999769210815,2.811800003051758
RCL,75.30914233518673,76.15062343129465,74.50785567911042,75.361235107228,2061783.1938046068,0.0006917190984516579,0.039400000125169754,-0.21199999749660492,-1.3398000001907349,1.260699987411499
RE,182.8679308975376,184.24131231135829,181.48712970611592,182.9029229547261,344747.58935663226,0.00019135152356544112,0.47099998593330383,-0.5759999752044678,-0.5246000289916992,-1.4643000364303589
REG,62.44565528196984,62.952469976171486,61.9123245432884,62.450405083399524,700869.2144559174,7.606296079742626e-05,2.1837000846862793,-1.7350000143051147,1.3588999509811401,-0.2045000046491623
REGN,381.8615145469,387.48145731319516,375.8536600158984,381.83309968228735,878688.5957108816,-7.441143851950301e-05,0.009100000374019146,-0.3871000111103058,-1.6821000576019287,3.8626999855041504
RF,10.932434551231134,11.05252907069102,10.815292692613196,10.935607625099292,16398451.548848292,0.0002902440305760438,-0.6456000208854675,1.840000033378601,-2.848400115966797,-0.07699999958276749
RHI,46.20834789515496,46.633197458300295,45.78763018268464,46.23563145353458,1069717.325655282,0.0005904465236785278,0.1736000031232834,-0.3199000060558319,-1.051200032234192,-0.11020000278949738
RHT,72.28888721207316,72.96177299444,71.59904892772039,72.31238284352662,1684832.7490071484,0.0003250241131050784,-0.31679999828338623,-0.9635000228881836,-1.2346999645233154,0.4025999903678894
RJF,58.62381652104843,59.143979189833196,58.06611199364565,58.64046068308174,789930.7378872121,0.00028391467872674095,-0.8123999834060669,0.7116000056266785,-2.3784000873565674,-1.0667999982833862
RL,128.28493645750584,129.55440627482105,127.00424511517058,128.24887609213673,1086690.9936457507,-0.0002810958664741982,0.8902000188827515,0.08370000123977661,-0.6733999848365784,0.7268000245094299
RMD,59.42591739475772,59.95132517871324,58.94839261318502,59.49138999205725,964707.8983320096,0.001101751561774088,0.4966000020503998,-0.7886000275611877,-0.558899998664856,0.2831000089645386
ROK,123.72312152501979,124.8032618745037,122.64612644956308,123.75925337569501,905779.8490865766,0.0002920379815013936,0.10350000113248825,0.23229999840259552,-1.2942999601364136,-1.0537999868392944
ROP,171.93527005559946,173.17883621922164,170.73833304209714,172.0563860206513,460262.85941223195,0.0007044276896338764,0.23330000042915344,0.005400000140070915,-1.024999976158142,-1.527999997138977
ROST,49.905596108022195,50.35557323272441,49.45476814932487,49.91224821286735,3072941.142970612,0.00013329376590860294,0.7027999758720398,-0.1451999992132187,-0.670199990272522,0.08810000121593475
RRC,50.70363375694999,51.4926572676727,49.844518665607595,50.64830023828436,3851102.456711676,-0.0010913126844296335,2.4100000858306885,2.0536999702453613,-0.9243999719619751,4.109799861907959
RSG,45.54036934074656,45.820588959491666,45.28638991262909,45.566632247815704,1475662.044479746,0.0005766950828316556,0.7208999991416931,-1.0127999782562256,-0.09920000284910202,-1.9843000173568726
RTN,118.48797196187441,119.37240595710894,117.66323558379665,118.53730738681496,1729189.2184273233,0.0004163749629913985,0.36980000138282776,-1.0175000429153442,-0.43470001220703125,-1.5429999828338623
SBAC,108.71616759332807,109.75656187450366,107.68442716441623,108.76632684670376,1182034.4011119937,0.00046137804970577853,0.7727000117301941,-0.5357999801635742,-0.41290000081062317,0.06019999831914902
SBUX,48.34429602859415,48.71721215250197,47.95682668784751,48.35224583002379,9230516.611596506,0.00016444135260418354,0.28929999470710754,-1.089400053024292,-0.5131999850273132,-0.6136000156402588
SCG,57.28440826052428,57.74265607625094,56.77960301826829,57.27843526608415,1017305.0444797458,-0.0001042691130361982,3.6308000087738037,-1.367400050163269,2.396899938583374,-0.4296000003814697
SCHW,30.97284320889592,31.300982208101686,30.63843200953136,30.988927720413013,8176124.504368546,0.000519310139163238,-0.9416999816894531,0.9492999911308289,-2.70989990234375,0.4018000066280365
SEE,40.46937450357424,40.85955067513901,40.07216147736298,40.473756949960276,2019353.352660842,0.00010829044035884102,0.44510000944137573,-0.2851000130176544,-0.8192999958992004,0.2053000032901764
SHW,261.271159650517,263.43792025416974,259.23210309769644,261.45109610802257,712112.2144559174,0.0006886962102753691,0.5932000279426575,-0.9383000135421753,-0.33899998664855957,-0.6888999938964844
SIG,93.33951151707697,94.48003193010331,92.1518820492455,93.30293884034947,1237261.2088959492,-0.00039182417106190784,0.6322000026702881,0.31709998846054077,-1.1474000215530396,1.7282999753952026
SJM,115.20636489277196,116.03139126290705,114.37681302621114,115.25293884034959,833941.0444797458,0.0004042654034000295,1.2970999479293823,-0.8604999780654907,0.33169999718666077,-1.978600025177002
SLB,81.90374114376495,82.67785893566322,81.10236862589348,81.90536139793497,7287461.7299444005,1.978241955000525e-05,1.409500002861023,1.4118000268936157,-0.8198000192642212,0.13809999823570251
SLG,104.53824861000798,105.42683248610007,103.60438752978546,104.53598888006358,742849.9237490072,-2.1616298096105452e-05,1.4336999654769897,-1.2488000392913818,0.5123999714851379,-0.21780000627040863
SNA,139.25889197775984,140.3301930897539,138.14591501191416,139.2899920571884,421194.4741858618,0.00022332562744744342,0.3540000021457672,-0.4471000134944916,-0.7020999789237976,-1.5996999740600586
SNI,71.31954725973004,71.9794518665608,70.65907498014298,71.31920571882438,1139731.809372518,-4.788882133840833e-06,0.6675999760627747,0.37770000100135803,-0.9319000244140625,0.011800000444054604
SNPS,51.641421763304216,52.043325258141415,51.25946425734709,51.676725258141374,802240.7498014297,0.0006836274763884389,0.0925000011920929,-0.9700999855995178,-0.7014999985694885,-1.5806000232696533
SO,46.62350595710877,46.92194765687052,46.3120386814933,46.63677521842731,5026764.164416203,0.00028460453683488036,2.9825000762939453,-1.5271999835968018,2.036900043487549,-1.9056999683380127
SPG,176.59344320889588,177.97827037331214,175.09362319301067,176.54747418586192,1457440.6354249404,-0.00026030990844651074,1.8180999755859375,-1.8356000185012817,1.0839999914169312,-0.1274999976158142
SPGI,101.15640190627477,102.00650428911845,100.33668713264494,101.22704924543282,1322271.3463065925,0.0006983971140404416,-0.1582999974489212,-0.7563999891281128,-1.0549999475479126,-0.791700005531311
SRCL,106.72495623510719,107.55272335186677,105.87247243844313,106.74580381254971,691720.9714058777,0.00019533929249498295,0.9670000076293945,-0.7448999881744385,-0.07000000029802322,-0.9287999868392944
SRE,101.30560762509943,102.07020873709293,100.54172684670375,101.34629070691028,1215602.3073868148,0.00040158765901103917,2.4695000648498535,-1.2906999588012695,1.4943000078201294,-1.4764000177383423
STI,43.31097696584597,43.69991270849879,42.92294352660839,43.32092136616361,3696698.131056394,0.0002296046179121037,-0.37139999866485596,1.2453999519348145,-2.2146999835968018,-1.4470000267028809
STT,73.21356949960294,73.86856910246236,72.61128133439233,73.25978554408249,2421891.374900715,0.0006312497095200463,-0.5927000045776367,0.5005999803543091,-2.0250000953674316,-1.6052000522613525
STX,44.428280381254986,45.033335980937295,43.81306068308197,44.437953137410744,4489437.335980937,0.00021771619501707455,0.08950000256299973,0.7767000198364258,-1.9088000059127808,1.9556000232696533
STZ,124.67694980142967,125.67201127879265,123.67454019062743,124.71170770452738,1530969.8498808579,0.00027878371385465524,0.541700005531311,-1.3529000282287598,-0.16590000689029694,-0.9085999727249146
SWK,106.71194400317708,107.4672794281175,105.92302287529786,106.72770452740298,1148015.53375695,0.00014769222295704274,0.07199999690055847,-0.2847000062465668,-1.031599998474121,-1.9107999801635742
SWKS,68.00404289118349,68.87496632247816,67.02514988085782,68.00707227958692,3194068.34471803,4.4547180941595703e-05,-0.11159999668598175,0.08649999648332596,-1.7488000392913818,2.2741000652313232
SYF,30.802590090090074,31.120606418918953,30.444634459459454,30.792302927927935,6005980.353603603,-0.00033397068662252777,-0.17319999635219574,-0.015200000256299973,-1.5465999841690063,0.29120001196861267
SYK,101.4387907069103,102.14873455123117,100.72676600476565,101.48760127084974,1365451.3073868148,0.0004811824312897234,0.41769999265670776,-1.517699956893921,-0.1500999927520752,-1.450600028038025
SYMC,24.153033995234328,24.397491104050804,23.922774344718068,24.1728563145354,6900795.079428118,0.0008206968658672531,0.6201000213623047,-0.15800000727176666,-0.7803000211715698,0.5651999711990356
SYY,43.06207307386812,43.35595869737887,42.78417029388399,43.07771247021443,3705860.960285941,0.00036318261592936375,1.2726000547409058,-1.1328999996185303,0.42800000309944153,-1.86080002784729
T,36.40244638602063,36.626416838760896,36.15685758538521,36.39980492454332,25298330.478951547,-7.256274617643939e-05,1.1957999467849731,-0.7613000273704529,0.18279999494552612,-1.7388999462127686
TAP,77.35133550436842,77.98598268467035,76.68505146942017,77.35028594122325,1617744.922954726,-1.3568778590952237e-05,0.9652000069618225,-0.4275999963283539,-0.2393999993801117,-0.6870999932289124
TDG,214.95658459094508,216.93646417791902,212.99307815726763,215.10420174741841,512264.17950754566,0.0006867300983323723,0.4036000072956085,-0.7731999754905701,-0.6291000247001648,-0.09399999678134918
TEL,64.14378689436059,64.64816020651315,63.64582700555993,64.16305798252577,1767532.348689436,0.00030043577247662774,-0.09149999916553497,-0.2590000033378601,-1.1871000528335571,-1.371000051498413
TGT,67.82820865766483,68.39793200953129,67.2535563939635,67.84036536934076,5678874.949960286,0.00017922796306303853,0.7153000235557556,-0.7657999992370605,-0.38940000534057617,0.35040000081062317
TIF,84.39299046862601,85.19123169181887,83.61638832406663,84.41141382049246,1490979.0063542493,0.00021830429001440223,0.28220000863075256,0.043699998408555984,-1.141700029373169,0.1623000055551529
TJX,66.72825258141387,67.25646536934076,66.20853359809381,66.74356632247822,3656175.7942811754,0.00022949411189304985,0.5354999899864197,-0.8079000115394592,-0.44999998807907104,-0.40290001034736633
TMK,59.88053558379669,60.2658871326449,59.498730659253454,59.9084225575854,612051.5694996029,0.00046571015968428775,-0.10599999874830246,-0.4043999910354614,-1.063099980354309,-2.8580000400543213
TMO,134.18346306592514,135.19769864972213,133.1522991262907,134.2470611596508,1793787.0849880858,0.000473963723043971,-0.2004999965429306,-0.8677999973297119,-1.0413000583648682,-1.207200050354004
TPR,41.76696584590943,42.19505035742647,41.342713820492456,41.772025416997685,4117990.474980143,0.0001211381048582633,0.794700026512146,-0.08799999952316284,-0.6970999836921692,0.9435999989509583
TRIP,67.34143065925333,68.32107172359015,66.3228803018269,67.33374424146149,2321225.9841143764,-0.00011414099339139918,0.1931000053882599,0.2345999926328659,-1.6109000444412231,2.83870005607605
TROW,77.92702938840353,78.52650905480542,77.2666934074664,77.92850277998416,1508215.0206513104,1.8907323841232087e-05,-0.14980000257492065,0.04969999939203262,-1.3819999694824219,-1.75
TRV,105.26191024622723,105.90109729944405,104.62860071485316,105.29890786338362,1858723.4646544878,0.0003514815289770383,0.8375999927520752,-0.5254999995231628,-0.19280000030994415,-2.4598000049591064
TSCO,72.85134233518666,73.59321961874502,72.07971509134232,72.859733121525,1409712.9714058777,0.00011517682542804839,0.23430000245571136,0.08500000089406967,-1.2454999685287476,0.5432000160217285
TSN,49.40299046862588,49.87924519459887,48.94392462271645,49.42969817315326,3781991.941223193,0.0005406090658488251,0.9602000117301941,-0.697700023651123,-0.19769999384880066,0.27480000257492065
TSS,43.67542096902302,44.04451334392373,43.32759896743446,43.71605242255759,1287097.9118347894,0.0009303047946208416,-0.049400001764297485,-0.9269000291824341,-0.8819000124931335,-1.0628000497817993
TWX,78.42359722001581,79.05827664813343,77.83573749007147,78.45477164416215,5221944.732327244,0.0003975133155252208,0.3276999890804291,-0.3736000061035156,-0.7932000160217285,-1.0288000106811523
TXN,58.82618689436061,59.3138478157267,58.35513026211283,58.86892692613181,6018961.555996823,0.0007265477167159387,-0.30480000376701355,-0.5702999830245972,-1.316100001335144,-0.5192000269889832
TXT,40.40870135027803,40.808035663224835,40.03499062748212,40.43536139793477,1925221.8252581414,0.0006597600706254082,-0.2948000133037567,0.39340001344680786,-1.8162000179290771,0.11569999903440475
UA,23.7211555075594,24.055991576673865,23.357280345572338,23.723081896551726,3362929.540948276,8.120974510341353e-05,0.7436000108718872,0.555400013923645,-1.3350000381469727,2.743299961090088
UAA,29.303730500397144,29.66988840349484,28.892322319301016,29.288258538522612,5652010.153296267,-0.000527986082670332,0.25279998779296875,0.24160000681877136,-1.5241999626159668,2.616300106048584
UAL,53.17187855440832,53.96461429706113,52.38262517871333,53.16538125496419,5299701.248610008,-0.00012219428052530457,-0.2996000051498413,-0.2711000144481659,-1.906999945640564,3.419800043106079
UDR,32.09409849086575,32.36461048451157,31.81785766481342,32.103669579031,1651598.9563145353,0.0002982195673131688,1.8902000188827515,-1.9731999635696411,1.2130000591278076,-0.3865000009536743
UHS,106.08505559968228,107.24476362192223,104.90950786338368,106.13315329626688,816243.5115170771,0.0004533880508683962,0.36899998784065247,-0.4918000102043152,-0.8729000091552734,0.9205999970436096
ULTA,170.20428514694208,172.0176173153295,168.29139388403487,170.17217712470202,1013662.320889595,-0.0001886440298042259,0.3824000060558319,-0.6305000185966492,-0.8647000193595886,1.638800024986267
UNH,120.92217633042097,121.93787418586182,119.93536934074663,121.00325655281982,4019056.461477363,0.0006705157387946831,0.27959999442100525,-1.1259000301361084,-0.5090000033378601,-0.77920001745224
UNM,36.7928752978554,37.113129308975445,36.476838363780764,36.803749007148525,1611633.6671961874,0.0002955384488190831,-0.460999995470047,0.5533000230789185,-1.9318000078201294,-1.5430999994277954
UNP,96.49735186656079,97.33405250198572,95.71658895949166,96.53719618745046,4263048.288324066,0.00041290584786998774,0.41929998993873596,-0.0737999975681305,-0.871999979019165,-0.6499999761581421
UPS,102.51018268467047,103.14105464654496,101.90823407466229,102.54175536139782,3027247.5448768865,0.0003079955171328725,0.21279999613761902,-0.7397000193595886,-0.6704000234603882,-2.129300117492676
URI,90.1866390786339,91.46381501191425,88.90133764892757,90.21018268467037,1892244.2589356632,0.00026105425678343977,0.17820000648498535,1.3329999446868896,-2.188499927520752,2.602400064468384
USB,43.84909777601277,44.148680063542535,43.558645353455084,43.861767275615584,7142589.941223193,0.00028893410002487366,-0.07500000298023224,-0.11739999800920486,-1.2021000385284424,-2.371000051498413
UTX,108.30831215250205,109.02200103256554,107.57948141382042,108.30878474980143,3802275.8610007945,4.363444411475766e-06,0.19329999387264252,-0.7078999876976013,-0.698199987411499,-2.1919000148773193
V,71.04176981731533,71.55539825258143,70.51375798252587,71.05198371723586,10075848.808578236,0.00014377316256048534,0.012900000438094139,-1.1461000442504883,-0.7020999789237976,-1.416700005531311
VAR,85.95751787132646,86.6468155679111,85.3313215250198,86.03756949960291,771545.1739475775,0.000931292925376036,0.22920000553131104,-1.378999948501587,-0.42010000348091125,-1.104699969291687
VFC,60.87683335980936,61.397061397934955,60.35269348689439,60.902330579825325,2403062.632247816,0.00041883288943865104,0.5834000110626221,-0.2628999948501587,-0.678600013256073,-0.4092000126838684
VIAB,56.601000794281134,57.2315741064336,55.9381004765687,56.57219221604441,3829077.0174741857,-0.0005089764815543389,0.38109999895095825,0.6636000275611877,-1.5194000005722046,1.3976000547409058
VLO,57.59471810961085,58.32059078633831,56.85291938046071,57.61354249404284,6451987.977760127,0.0003268422009838061,0.6805999875068665,0.3407000005245209,-1.1771999597549438,2.3131000995635986
VMC,89.38814138204923,90.38370738681489,88.36145107227964,89.39841540905472,1049429.8316123907,0.00011493724834910761,0.6090999841690063,0.2847000062465668,-1.0880000591278076,1.2443000078201294
VNO,94.9293645750596,95.66980206513102,94.13892136616386,94.93519062748204,903132.6393963463,6.137249994803014e-05,1.5094000101089478,-1.8914999961853027,0.8784999847412109,-0.5080999732017517
VRSK,72.72239872915017,73.264578395552,72.20365027799838,72.76034630659257,859428.298649722,0.0005218141604999646,0.20900000631809235,-1.1721999645233154,-0.5234000086784363,-1.4170000553131104
VRSN,71.54669976171564,72.1900962668785,70.96604551231135,71.58306671961881,1127986.9650516282,0.0005082967911069067,0.2825999855995178,-0.8723999857902527,-0.6732000112533569,-0.11299999803304672
VRTX,101.59963950715434,103.23025516693168,99.86516669316364,101.61113502779995,1859519.6989674345,0.00011314528970155188,0.027499999850988388,-0.04670000076293945,-1.8259999752044678,3.8589999675750732
VTR,65.05155281969829,65.58428443208891,64.46456362192224,65.03783161239073,2116030.90548054,-0.0002109282055969558,2.1015000343322754,-1.88100004196167,1.2841999530792236,0.617900013923645
VZ,49.00184980142967,49.32550452740263,48.64935138999206,49.00809451945989,16093070.656870533,0.00012743841417258098,0.8942999839782715,-0.7677000164985657,-0.06109999865293503,-1.5063999891281128
WAT,131.25476489277204,132.29932223987316,130.20162454328835,131.31683478951572,500379.5798252581,0.00047289633099710456,-0.2134000062942505,-0.9490000009536743,-1.0253000259399414,-1.089900016784668
WBA,73.06677124702153,73.74993240667196,72.38137299444001,73.09200158856231,5432793.386020651,0.000345305275026849,0.34049999713897705,-0.7781999707221985,-0.6650999784469604,-0.17170000076293945
WDC,75.95889189833184,76.9236522637013,74.95646528991263,75.9547258935663,3363797.9475774425,-5.4845517903460346e-05,0.37929999828338623,0.8464000225067139,-1.6904000043869019,2.0827999114990234
WEC,52.29568308181097,52.68782787926922,51.907044559173976,52.323339952343076,1775572.5194598888,0.0005288557085838082,3.5097999572753906,-1.8875999450683594,2.5481998920440674,-1.118499994277954
WFC,50.41677108816524,50.782104130262034,50.061090548053976,50.429519459888766,18511480.962668784,0.00025285974187501246,-0.2824000120162964,0.10970000177621841,-1.49590003490448,-2.2534000873565674
WHR,162.1050158856235,163.86805909451945,160.3275183478953,162.13520254169975,978465.3717235902,0.0001862166689374152,0.6326000094413757,-0.26739999651908875,-0.7774999737739563,1.1805000305175781
WLTW,133.8754166666666,134.93120056818185,132.71003314393946,133.93820075757574,785482.178030303,0.0004689740093616887,0.5001000165939331,-0.7803999781608582,-0.4302000105381012,-1.146399974822998
WM,55.95534551231136,56.292248292295454,55.65543129467828,55.98817315329623,2014002.0397140589,0.000586675690844354,0.7791000008583069,-1.2239999771118164,0.05719999969005585,-2.345099925994873
WMB,36.59523431294674,37.0613806989674,36.11226012708504,36.5875853852263,8013220.940428912,-0.00020901431194642574,1.5993000268936157,1.3284000158309937,-0.9244999885559082,2.233299970626831
WMT,75.39099658459106,75.90237108816528,74.92681389992053,75.42371723590128,8175689.6187450355,0.00043401271759951427,0.8299999833106995,-1.0235999822616577,-0.031199999153614044,-1.2698999643325806
WRK,51.20906202723147,51.83837367624815,50.53999667170949,51.198942598187365,1700807.990936556,-0.0001976101229645973,0.8202000260353088,0.7128999829292297,-1.1384999752044678,1.6617000102996826
WU,18.512013582208102,18.681904447974592,18.35513089753772,18.520480540111222,5365383.988880063,0.00045737638779923327,-0.21529999375343323,-0.5796999931335449,-1.2257000207901,-0.4993000030517578
WY,31.48582621127877,31.751782922954728,31.212984749801446,31.483157267672805,4258756.950754567,-8.476651011332683e-05,0.9085000157356262,-0.6370000243186951,-0.2671999931335449,0.25589999556541443
WYN,79.02435258141378,79.700118903892,78.34121024622706,79.0486735504369,1147585.6449563145,0.0003077654954283387,0.27000001072883606,-0.31439998745918274,-0.9236000180244446,-0.3792000114917755
WYNN,133.37636282764075,135.1673061953932,131.50344154090556,133.34714376489302,2437519.782366958,-0.0002190722713400677,0.7590000033378601,0.35260000824928284,-1.2138999700546265,2.7388999462127686
XEC,109.51970770452756,111.14752962668783,107.85705663224775,109.534185861795,1124747.8649722002,0.00013219682165783173,1.9901000261306763,2.5722999572753906,-1.3331999778747559,3.176500082015991
XEL,36.76387220015882,37.02123677521842,36.50306195393175,36.78365766481335,3068818.832406672,0.000538176842384948,3.6782000064849854,-1.6439000368118286,2.602299928665161,-1.382599949836731
XL,35.3023112787927,35.578119221604425,35.01781739475767,35.31509928514695,2228249.1795075457,0.0003622427509988939,0.6161999702453613,-0.5498999953269958,-0.4293000102043152,-1.5088000297546387
XLNX,49.819316123907896,50.27083677521845,49.359505401112045,49.83347418586184,3057583.12867355,0.0002841882036021806,-0.06679999828338623,-0.5249000191688538,-1.1411999464035034,-0.25999999046325684
XOM,87.65259729944407,88.2371687053217,87.0517309769658,87.66844718030188,12399217.393169181,0.00018082614031010574,1.270799994468689,0.5583999752998352,-0.37070000171661377,-1.6161999702453613
XRAY,53.79490301826845,54.24329634630661,53.340853216838724,53.82188244638602,1203439.7545671167,0.0005015238731522302,0.3253999948501587,-0.7967000007629395,-0.6032000184059143,-0.9977999925613403
XRX,40.48830786338364,40.904809134233574,40.05771318506756,40.48680698967437,2376838.2637013504,-3.7069311820410496e-05,0.015300000086426735,0.27399998903274536,-1.5098999738693237,0.4309000074863434
XYL,41.41547267672755,41.7638849880858,41.076026370134976,41.4340945194599,1183141.1366163623,0.0004496349197242897,0.17399999499320984,-0.21899999678134918,-1.0228999853134155,-0.6488000154495239
YUM,75.42209872915016,76.02712343129477,74.84491429706107,75.45100873709283,3209031.5917394757,0.00038330951312412574,0.23489999771118164,-1.1265000104904175,-0.5573999881744385,-0.6951000094413757
ZBH,105.54201350277987,106.41985432883244,104.69803820492454,105.60629070691019,1297143.6600476569,0.0006090200669577651,-0.04659999907016754,-1.1366000175476074,-0.7960000038146973,-1.0414999723434448
ZION,32.161477124702174,32.509289753772784,31.80224114376489,32.171790309769676,2621177.9126290707,0.0003206688868025111,-0.6402999758720398,1.766800045967102,-2.796799898147583,-0.08540000021457672
ZTS,45.09138895949164,45.48882621127878,44.66558848292296,45.09864813343923,3681878.482922955,0.00016098803153102246,0.2897999882698059,-1.0808000564575195,-0.6521999835968018,0.5371999740600586
